digraph Tree {
node [shape=box, style="filled, rounded", color="black", fontname="helvetica"] ;
edge [fontname="helvetica"] ;
0 [label=<NetIncome &le; 0.487<br/>gini = 0.453<br/>samples = 501<br/>value = [522, 278]<br/>class = no>, fillcolor="#f3c4a2"] ;
1 [label=<net_cash_used_in_investing_activities &le; 0.517<br/>gini = 0.444<br/>samples = 123<br/>value = [66, 132]<br/>class = true>, fillcolor="#9ccef2"] ;
0 -> 1 [labeldistance=2.5, labelangle=45, headlabel="True"] ;
2 [label=<total_revenue &le; 0.143<br/>gini = 0.426<br/>samples = 18<br/>value = [18, 8]<br/>class = no>, fillcolor="#f1b991"] ;
1 -> 2 ;
3 [label=<trade_payables &le; 0.01<br/>gini = 0.245<br/>samples = 14<br/>value = [18, 3]<br/>class = no>, fillcolor="#e9965a"] ;
2 -> 3 ;
4 [label=<gini = 0.444<br/>samples = 3<br/>value = [1, 2]<br/>class = true>, fillcolor="#9ccef2"] ;
3 -> 4 ;
5 [label=<gini = 0.105<br/>samples = 11<br/>value = [17, 1]<br/>class = no>, fillcolor="#e78845"] ;
3 -> 5 ;
6 [label=<gini = 0.0<br/>samples = 4<br/>value = [0, 5]<br/>class = true>, fillcolor="#399de5"] ;
2 -> 6 ;
7 [label=<trade_payables &le; 0.052<br/>gini = 0.402<br/>samples = 105<br/>value = [48, 124]<br/>class = true>, fillcolor="#86c3ef"] ;
1 -> 7 ;
8 [label=<non.current_investments &le; 0.028<br/>gini = 0.477<br/>samples = 62<br/>value = [37, 57]<br/>class = true>, fillcolor="#baddf6"] ;
7 -> 8 ;
9 [label=<gini = 0.5<br/>samples = 44<br/>value = [35, 34]<br/>class = no>, fillcolor="#fefbf9"] ;
8 -> 9 ;
10 [label=<gini = 0.147<br/>samples = 18<br/>value = [2, 23]<br/>class = true>, fillcolor="#4aa6e7"] ;
8 -> 10 ;
11 [label=<financeCosts &le; 0.587<br/>gini = 0.242<br/>samples = 43<br/>value = [11, 67]<br/>class = true>, fillcolor="#5aade9"] ;
7 -> 11 ;
12 [label=<gini = 0.209<br/>samples = 42<br/>value = [9, 67]<br/>class = true>, fillcolor="#54aae8"] ;
11 -> 12 ;
13 [label=<gini = 0.0<br/>samples = 1<br/>value = [2, 0]<br/>class = no>, fillcolor="#e58139"] ;
11 -> 13 ;
14 [label=<total_share_capital &le; 0.15<br/>gini = 0.367<br/>samples = 378<br/>value = [456, 146]<br/>class = no>, fillcolor="#eda978"] ;
0 -> 14 [labeldistance=2.5, labelangle=-45, headlabel="False"] ;
15 [label=<long_term_loans_and_advances &le; 0.045<br/>gini = 0.344<br/>samples = 350<br/>value = [434, 123]<br/>class = no>, fillcolor="#eca571"] ;
14 -> 15 ;
16 [label=<total_tax &le; 0.292<br/>gini = 0.37<br/>samples = 299<br/>value = [363, 118]<br/>class = no>, fillcolor="#edaa79"] ;
15 -> 16 ;
17 [label=<gini = 0.439<br/>samples = 156<br/>value = [174, 84]<br/>class = no>, fillcolor="#f2be99"] ;
16 -> 17 ;
18 [label=<gini = 0.258<br/>samples = 143<br/>value = [189, 34]<br/>class = no>, fillcolor="#ea985d"] ;
16 -> 18 ;
19 [label=<trade_payables &le; 0.859<br/>gini = 0.123<br/>samples = 51<br/>value = [71, 5]<br/>class = no>, fillcolor="#e78a47"] ;
15 -> 19 ;
20 [label=<gini = 0.101<br/>samples = 50<br/>value = [71, 4]<br/>class = no>, fillcolor="#e68844"] ;
19 -> 20 ;
21 [label=<gini = 0.0<br/>samples = 1<br/>value = [0, 1]<br/>class = true>, fillcolor="#399de5"] ;
19 -> 21 ;
22 [label=<EPS_diluted &le; 0.33<br/>gini = 0.5<br/>samples = 28<br/>value = [22, 23]<br/>class = true>, fillcolor="#f6fbfe"] ;
14 -> 22 ;
23 [label=<gini = 0.0<br/>samples = 7<br/>value = [0, 12]<br/>class = true>, fillcolor="#399de5"] ;
22 -> 23 ;
24 [label=<short_term_provisions &le; 0.031<br/>gini = 0.444<br/>samples = 21<br/>value = [22, 11]<br/>class = no>, fillcolor="#f2c09c"] ;
22 -> 24 ;
25 [label=<gini = 0.188<br/>samples = 15<br/>value = [17, 2]<br/>class = no>, fillcolor="#e89050"] ;
24 -> 25 ;
26 [label=<gini = 0.459<br/>samples = 6<br/>value = [5, 9]<br/>class = true>, fillcolor="#a7d3f3"] ;
24 -> 26 ;
}
