digraph Tree {
node [shape=box, style="filled, rounded", color="black", fontname="helvetica"] ;
edge [fontname="helvetica"] ;
0 [label=<total_share_capital &le; 0.096<br/>gini = 0.446<br/>samples = 509<br/>value = [532, 268]<br/>class = no>, fillcolor="#f2c09d"] ;
1 [label=<EPS_diluted &le; 0.33<br/>gini = 0.428<br/>samples = 437<br/>value = [482, 217]<br/>class = no>, fillcolor="#f1ba92"] ;
0 -> 1 [labeldistance=2.5, labelangle=45, headlabel="True"] ;
2 [label=<total_revenue &le; 0.671<br/>gini = 0.479<br/>samples = 105<br/>value = [67, 102]<br/>class = true>, fillcolor="#bbddf6"] ;
1 -> 2 ;
3 [label=<cogs &le; 0.005<br/>gini = 0.468<br/>samples = 102<br/>value = [61, 102]<br/>class = true>, fillcolor="#afd8f5"] ;
2 -> 3 ;
4 [label=<gini = 0.409<br/>samples = 63<br/>value = [29, 72]<br/>class = true>, fillcolor="#89c4ef"] ;
3 -> 4 ;
5 [label=<gini = 0.499<br/>samples = 39<br/>value = [32, 30]<br/>class = no>, fillcolor="#fdf7f3"] ;
3 -> 5 ;
6 [label=<gini = 0.0<br/>samples = 3<br/>value = [6, 0]<br/>class = no>, fillcolor="#e58139"] ;
2 -> 6 ;
7 [label=<cogs &le; 0.135<br/>gini = 0.34<br/>samples = 332<br/>value = [415, 115]<br/>class = no>, fillcolor="#eca470"] ;
1 -> 7 ;
8 [label=<NetIncome &le; 0.49<br/>gini = 0.299<br/>samples = 272<br/>value = [353, 79]<br/>class = no>, fillcolor="#eb9d65"] ;
7 -> 8 ;
9 [label=<gini = 0.382<br/>samples = 167<br/>value = [194, 67]<br/>class = no>, fillcolor="#eead7d"] ;
8 -> 9 ;
10 [label=<gini = 0.131<br/>samples = 105<br/>value = [159, 12]<br/>class = no>, fillcolor="#e78b48"] ;
8 -> 10 ;
11 [label=<non.current_investments &le; 0.004<br/>gini = 0.465<br/>samples = 60<br/>value = [62, 36]<br/>class = no>, fillcolor="#f4caac"] ;
7 -> 11 ;
12 [label=<gini = 0.3<br/>samples = 31<br/>value = [40, 9]<br/>class = no>, fillcolor="#eb9d66"] ;
11 -> 12 ;
13 [label=<gini = 0.495<br/>samples = 29<br/>value = [22, 27]<br/>class = true>, fillcolor="#daedfa"] ;
11 -> 13 ;
14 [label=<EBT &le; 0.432<br/>gini = 0.5<br/>samples = 72<br/>value = [50, 51]<br/>class = true>, fillcolor="#fbfdfe"] ;
0 -> 14 [labeldistance=2.5, labelangle=-45, headlabel="False"] ;
15 [label=<total_shareholders_funds &le; 0.627<br/>gini = 0.404<br/>samples = 46<br/>value = [18, 46]<br/>class = true>, fillcolor="#86c3ef"] ;
14 -> 15 ;
16 [label=<other_income &le; 0.396<br/>gini = 0.265<br/>samples = 36<br/>value = [8, 43]<br/>class = true>, fillcolor="#5eafea"] ;
15 -> 16 ;
17 [label=<gini = 0.215<br/>samples = 34<br/>value = [6, 43]<br/>class = true>, fillcolor="#55abe9"] ;
16 -> 17 ;
18 [label=<gini = 0.0<br/>samples = 2<br/>value = [2, 0]<br/>class = no>, fillcolor="#e58139"] ;
16 -> 18 ;
19 [label=<tangible_assets &le; 0.009<br/>gini = 0.355<br/>samples = 10<br/>value = [10, 3]<br/>class = no>, fillcolor="#eda774"] ;
15 -> 19 ;
20 [label=<gini = 0.375<br/>samples = 4<br/>value = [1, 3]<br/>class = true>, fillcolor="#7bbeee"] ;
19 -> 20 ;
21 [label=<gini = 0.0<br/>samples = 6<br/>value = [9, 0]<br/>class = no>, fillcolor="#e58139"] ;
19 -> 21 ;
22 [label=<expenditure_in_foreign_currency &le; 0.282<br/>gini = 0.234<br/>samples = 26<br/>value = [32, 5]<br/>class = no>, fillcolor="#e99558"] ;
14 -> 22 ;
23 [label=<less_levies &le; 0.039<br/>gini = 0.157<br/>samples = 24<br/>value = [32, 3]<br/>class = no>, fillcolor="#e78d4c"] ;
22 -> 23 ;
24 [label=<gini = 0.0<br/>samples = 16<br/>value = [27, 0]<br/>class = no>, fillcolor="#e58139"] ;
23 -> 24 ;
25 [label=<gini = 0.469<br/>samples = 8<br/>value = [5, 3]<br/>class = no>, fillcolor="#f5cdb0"] ;
23 -> 25 ;
26 [label=<gini = 0.0<br/>samples = 2<br/>value = [0, 2]<br/>class = true>, fillcolor="#399de5"] ;
22 -> 26 ;
}
