digraph Tree {
node [shape=box, style="filled, rounded", color="black", fontname="helvetica"] ;
edge [fontname="helvetica"] ;
0 [label=<changeInventory &le; 0.698<br/>gini = 0.468<br/>samples = 525<br/>value = [501, 299]<br/>class = no>, fillcolor="#f5ccaf"] ;
1 [label=<revenueGross &le; 0.061<br/>gini = 0.432<br/>samples = 448<br/>value = [458, 211]<br/>class = no>, fillcolor="#f1bb94"] ;
0 -> 1 [labeldistance=2.5, labelangle=45, headlabel="True"] ;
2 [label=<EPS_diluted &le; 0.33<br/>gini = 0.466<br/>samples = 257<br/>value = [242, 142]<br/>class = no>, fillcolor="#f4cbad"] ;
1 -> 2 ;
3 [label=<employeeBenefits &le; 0.002<br/>gini = 0.462<br/>samples = 68<br/>value = [37, 65]<br/>class = true>, fillcolor="#aad5f4"] ;
2 -> 3 ;
4 [label=<gini = 0.423<br/>samples = 13<br/>value = [16, 7]<br/>class = no>, fillcolor="#f0b890"] ;
3 -> 4 ;
5 [label=<gini = 0.39<br/>samples = 55<br/>value = [21, 58]<br/>class = true>, fillcolor="#81c0ee"] ;
3 -> 5 ;
6 [label=<company &le; 0.878<br/>gini = 0.397<br/>samples = 189<br/>value = [205, 77]<br/>class = no>, fillcolor="#efb083"] ;
2 -> 6 ;
7 [label=<gini = 0.429<br/>samples = 164<br/>value = [168, 76]<br/>class = no>, fillcolor="#f1ba93"] ;
6 -> 7 ;
8 [label=<gini = 0.051<br/>samples = 25<br/>value = [37, 1]<br/>class = no>, fillcolor="#e6843e"] ;
6 -> 8 ;
9 [label=<total_shareholders_funds &le; 0.448<br/>gini = 0.367<br/>samples = 191<br/>value = [216, 69]<br/>class = no>, fillcolor="#eda978"] ;
1 -> 9 ;
10 [label=<gini = 0.0<br/>samples = 7<br/>value = [0, 8]<br/>class = true>, fillcolor="#399de5"] ;
9 -> 10 ;
11 [label=<financeCosts &le; 0.015<br/>gini = 0.343<br/>samples = 184<br/>value = [216, 61]<br/>class = no>, fillcolor="#eca571"] ;
9 -> 11 ;
12 [label=<gini = 0.131<br/>samples = 84<br/>value = [119, 9]<br/>class = no>, fillcolor="#e78b48"] ;
11 -> 12 ;
13 [label=<gini = 0.454<br/>samples = 100<br/>value = [97, 52]<br/>class = no>, fillcolor="#f3c5a3"] ;
11 -> 13 ;
14 [label=<total_tax &le; 0.292<br/>gini = 0.441<br/>samples = 77<br/>value = [43, 88]<br/>class = true>, fillcolor="#9acdf2"] ;
0 -> 14 [labeldistance=2.5, labelangle=-45, headlabel="False"] ;
15 [label=<employeeBenefits &le; 0.002<br/>gini = 0.242<br/>samples = 45<br/>value = [11, 67]<br/>class = true>, fillcolor="#5aade9"] ;
14 -> 15 ;
16 [label=<gini = 0.0<br/>samples = 3<br/>value = [5, 0]<br/>class = no>, fillcolor="#e58139"] ;
15 -> 16 ;
17 [label=<company &le; 0.694<br/>gini = 0.151<br/>samples = 42<br/>value = [6, 67]<br/>class = true>, fillcolor="#4ba6e7"] ;
15 -> 17 ;
18 [label=<gini = 0.227<br/>samples = 26<br/>value = [6, 40]<br/>class = true>, fillcolor="#57ace9"] ;
17 -> 18 ;
19 [label=<gini = 0.0<br/>samples = 16<br/>value = [0, 27]<br/>class = true>, fillcolor="#399de5"] ;
17 -> 19 ;
20 [label=<revenueNet &le; 0.145<br/>gini = 0.478<br/>samples = 32<br/>value = [32, 21]<br/>class = no>, fillcolor="#f6d4bb"] ;
14 -> 20 ;
21 [label=<other_current_liabilities &le; 0.002<br/>gini = 0.375<br/>samples = 12<br/>value = [5, 15]<br/>class = true>, fillcolor="#7bbeee"] ;
20 -> 21 ;
22 [label=<gini = 0.0<br/>samples = 3<br/>value = [4, 0]<br/>class = no>, fillcolor="#e58139"] ;
21 -> 22 ;
23 [label=<gini = 0.117<br/>samples = 9<br/>value = [1, 15]<br/>class = true>, fillcolor="#46a4e7"] ;
21 -> 23 ;
24 [label=<netIncome_beforeExceptional_tax &le; 0.379<br/>gini = 0.298<br/>samples = 20<br/>value = [27, 6]<br/>class = no>, fillcolor="#eb9d65"] ;
20 -> 24 ;
25 [label=<gini = 0.0<br/>samples = 2<br/>value = [0, 2]<br/>class = true>, fillcolor="#399de5"] ;
24 -> 25 ;
26 [label=<gini = 0.225<br/>samples = 18<br/>value = [27, 4]<br/>class = no>, fillcolor="#e99456"] ;
24 -> 26 ;
}
