digraph Tree {
node [shape=box, style="filled, rounded", color="black", fontname="helvetica"] ;
edge [fontname="helvetica"] ;
0 [label=<changeInventory &le; 0.702<br/>gini = 0.437<br/>samples = 504<br/>value = [542, 258]<br/>class = no>, fillcolor="#f1bd97"] ;
1 [label=<total_share_capital &le; 0.015<br/>gini = 0.414<br/>samples = 468<br/>value = [521, 216]<br/>class = no>, fillcolor="#f0b58b"] ;
0 -> 1 [labeldistance=2.5, labelangle=45, headlabel="True"] ;
2 [label=<capital_work.in.progress &le; 0.022<br/>gini = 0.352<br/>samples = 245<br/>value = [298, 88]<br/>class = no>, fillcolor="#eda673"] ;
1 -> 2 ;
3 [label=<long_term_loans_and_advances &le; 0.013<br/>gini = 0.285<br/>samples = 153<br/>value = [202, 42]<br/>class = no>, fillcolor="#ea9b62"] ;
2 -> 3 ;
4 [label=<gini = 0.255<br/>samples = 143<br/>value = [198, 35]<br/>class = no>, fillcolor="#ea975c"] ;
3 -> 4 ;
5 [label=<gini = 0.463<br/>samples = 10<br/>value = [4, 7]<br/>class = true>, fillcolor="#aad5f4"] ;
3 -> 5 ;
6 [label=<capital_goods &le; 0.0<br/>gini = 0.438<br/>samples = 92<br/>value = [96, 46]<br/>class = no>, fillcolor="#f1bd98"] ;
2 -> 6 ;
7 [label=<gini = 0.491<br/>samples = 60<br/>value = [50, 38]<br/>class = no>, fillcolor="#f9e1cf"] ;
6 -> 7 ;
8 [label=<gini = 0.252<br/>samples = 32<br/>value = [46, 8]<br/>class = no>, fillcolor="#ea975b"] ;
6 -> 8 ;
9 [label=<netIncome_beforeExceptional_tax &le; 0.453<br/>gini = 0.463<br/>samples = 223<br/>value = [223, 128]<br/>class = no>, fillcolor="#f4c9ab"] ;
1 -> 9 ;
10 [label=<employeeBenefits &le; 0.004<br/>gini = 0.451<br/>samples = 74<br/>value = [43, 82]<br/>class = true>, fillcolor="#a1d0f3"] ;
9 -> 10 ;
11 [label=<gini = 0.128<br/>samples = 15<br/>value = [2, 27]<br/>class = true>, fillcolor="#48a4e7"] ;
10 -> 11 ;
12 [label=<gini = 0.489<br/>samples = 59<br/>value = [41, 55]<br/>class = true>, fillcolor="#cde6f8"] ;
10 -> 12 ;
13 [label=<cogs &le; 0.618<br/>gini = 0.324<br/>samples = 149<br/>value = [180, 46]<br/>class = no>, fillcolor="#eca16c"] ;
9 -> 13 ;
14 [label=<gini = 0.294<br/>samples = 138<br/>value = [174, 38]<br/>class = no>, fillcolor="#eb9d64"] ;
13 -> 14 ;
15 [label=<gini = 0.49<br/>samples = 11<br/>value = [6, 8]<br/>class = true>, fillcolor="#cee6f8"] ;
13 -> 15 ;
16 [label=<EPS_diluted &le; 0.329<br/>gini = 0.444<br/>samples = 36<br/>value = [21, 42]<br/>class = true>, fillcolor="#9ccef2"] ;
0 -> 16 [labeldistance=2.5, labelangle=-45, headlabel="False"] ;
17 [label=<total_share_capital &le; 0.023<br/>gini = 0.102<br/>samples = 20<br/>value = [2, 35]<br/>class = true>, fillcolor="#44a3e6"] ;
16 -> 17 ;
18 [label=<expenditure_in_foreign_currency &le; 0.004<br/>gini = 0.48<br/>samples = 3<br/>value = [2, 3]<br/>class = true>, fillcolor="#bddef6"] ;
17 -> 18 ;
19 [label=<gini = 0.0<br/>samples = 2<br/>value = [0, 3]<br/>class = true>, fillcolor="#399de5"] ;
18 -> 19 ;
20 [label=<gini = 0.0<br/>samples = 1<br/>value = [2, 0]<br/>class = no>, fillcolor="#e58139"] ;
18 -> 20 ;
21 [label=<gini = 0.0<br/>samples = 17<br/>value = [0, 32]<br/>class = true>, fillcolor="#399de5"] ;
17 -> 21 ;
22 [label=<trade_receivables &le; 0.029<br/>gini = 0.393<br/>samples = 16<br/>value = [19, 7]<br/>class = no>, fillcolor="#efaf82"] ;
16 -> 22 ;
23 [label=<gini = 0.0<br/>samples = 5<br/>value = [12, 0]<br/>class = no>, fillcolor="#e58139"] ;
22 -> 23 ;
24 [label=<other_operating_revenues &le; 0.019<br/>gini = 0.5<br/>samples = 11<br/>value = [7, 7]<br/>class = no>, fillcolor="#ffffff"] ;
22 -> 24 ;
25 [label=<gini = 0.0<br/>samples = 4<br/>value = [0, 6]<br/>class = true>, fillcolor="#399de5"] ;
24 -> 25 ;
26 [label=<gini = 0.219<br/>samples = 7<br/>value = [7, 1]<br/>class = no>, fillcolor="#e99355"] ;
24 -> 26 ;
}
