digraph Tree {
node [shape=box, style="filled, rounded", color="black", fontname="helvetica"] ;
edge [fontname="helvetica"] ;
0 [label=<changeInventory &le; 0.735<br/>gini = 0.461<br/>samples = 488<br/>value = [511, 289]<br/>class = no>, fillcolor="#f4c8a9"] ;
1 [label=<net_cash_used_from_financing_activities &le; 0.518<br/>gini = 0.452<br/>samples = 474<br/>value = [508, 267]<br/>class = no>, fillcolor="#f3c3a1"] ;
0 -> 1 [labeldistance=2.5, labelangle=45, headlabel="True"] ;
2 [label=<taxDividend &le; 0.001<br/>gini = 0.499<br/>samples = 134<br/>value = [117, 107]<br/>class = no>, fillcolor="#fdf4ee"] ;
1 -> 2 ;
3 [label=<deferred_tax_liabilities_net &le; 0.003<br/>gini = 0.421<br/>samples = 85<br/>value = [43, 100]<br/>class = true>, fillcolor="#8ec7f0"] ;
2 -> 3 ;
4 [label=<gini = 0.273<br/>samples = 54<br/>value = [15, 77]<br/>class = true>, fillcolor="#60b0ea"] ;
3 -> 4 ;
5 [label=<gini = 0.495<br/>samples = 31<br/>value = [28, 23]<br/>class = no>, fillcolor="#fae8dc"] ;
3 -> 5 ;
6 [label=<total_share_capital &le; 0.411<br/>gini = 0.158<br/>samples = 49<br/>value = [74, 7]<br/>class = no>, fillcolor="#e78d4c"] ;
2 -> 6 ;
7 [label=<gini = 0.119<br/>samples = 48<br/>value = [74, 5]<br/>class = no>, fillcolor="#e78a46"] ;
6 -> 7 ;
8 [label=<gini = 0.0<br/>samples = 1<br/>value = [0, 2]<br/>class = true>, fillcolor="#399de5"] ;
6 -> 8 ;
9 [label=<net_cash_used_in_investing_activities &le; 0.525<br/>gini = 0.412<br/>samples = 340<br/>value = [391, 160]<br/>class = no>, fillcolor="#f0b58a"] ;
1 -> 9 ;
10 [label=<net_inc.dec_in_cash_and_cash_equivalents &le; 0.636<br/>gini = 0.264<br/>samples = 117<br/>value = [162, 30]<br/>class = no>, fillcolor="#ea985e"] ;
9 -> 10 ;
11 [label=<gini = 0.235<br/>samples = 113<br/>value = [159, 25]<br/>class = no>, fillcolor="#e99558"] ;
10 -> 11 ;
12 [label=<gini = 0.469<br/>samples = 4<br/>value = [3, 5]<br/>class = true>, fillcolor="#b0d8f5"] ;
10 -> 12 ;
13 [label=<EPS_diluted &le; 0.34<br/>gini = 0.462<br/>samples = 223<br/>value = [229, 130]<br/>class = no>, fillcolor="#f4c9a9"] ;
9 -> 13 ;
14 [label=<gini = 0.487<br/>samples = 194<br/>value = [178, 128]<br/>class = no>, fillcolor="#f8dcc7"] ;
13 -> 14 ;
15 [label=<gini = 0.073<br/>samples = 29<br/>value = [51, 2]<br/>class = no>, fillcolor="#e68641"] ;
13 -> 15 ;
16 [label=<current_tax &le; 0.078<br/>gini = 0.211<br/>samples = 14<br/>value = [3, 22]<br/>class = true>, fillcolor="#54aae9"] ;
0 -> 16 [labeldistance=2.5, labelangle=-45, headlabel="False"] ;
17 [label=<gini = 0.0<br/>samples = 1<br/>value = [1, 0]<br/>class = no>, fillcolor="#e58139"] ;
16 -> 17 ;
18 [label=<NetIncome &le; 0.143<br/>gini = 0.153<br/>samples = 13<br/>value = [2, 22]<br/>class = true>, fillcolor="#4ba6e7"] ;
16 -> 18 ;
19 [label=<total_share_capital &le; 0.197<br/>gini = 0.444<br/>samples = 2<br/>value = [2, 1]<br/>class = no>, fillcolor="#f2c09c"] ;
18 -> 19 ;
20 [label=<gini = 0.0<br/>samples = 1<br/>value = [2, 0]<br/>class = no>, fillcolor="#e58139"] ;
19 -> 20 ;
21 [label=<gini = 0.0<br/>samples = 1<br/>value = [0, 1]<br/>class = true>, fillcolor="#399de5"] ;
19 -> 21 ;
22 [label=<gini = 0.0<br/>samples = 11<br/>value = [0, 21]<br/>class = true>, fillcolor="#399de5"] ;
18 -> 22 ;
}
