digraph Tree {
node [shape=box, style="filled, rounded", color="black", fontname="helvetica"] ;
edge [fontname="helvetica"] ;
0 [label=<current_tax &le; 0.155<br/>gini = 0.437<br/>samples = 513<br/>value = [542, 258]<br/>class = no>, fillcolor="#f1bd97"] ;
1 [label=<employeeBenefits &le; 0.002<br/>gini = 0.5<br/>samples = 220<br/>value = [163, 159]<br/>class = no>, fillcolor="#fefcfa"] ;
0 -> 1 [labeldistance=2.5, labelangle=45, headlabel="True"] ;
2 [label=<netIncome_beforeExceptional_tax &le; 0.453<br/>gini = 0.299<br/>samples = 62<br/>value = [76, 17]<br/>class = no>, fillcolor="#eb9d65"] ;
1 -> 2 ;
3 [label=<short_term_provisions &le; 0.0<br/>gini = 0.462<br/>samples = 33<br/>value = [30, 17]<br/>class = no>, fillcolor="#f4c8a9"] ;
2 -> 3 ;
4 [label=<gini = 0.367<br/>samples = 22<br/>value = [25, 8]<br/>class = no>, fillcolor="#eda978"] ;
3 -> 4 ;
5 [label=<gini = 0.459<br/>samples = 11<br/>value = [5, 9]<br/>class = true>, fillcolor="#a7d3f3"] ;
3 -> 5 ;
6 [label=<gini = 0.0<br/>samples = 29<br/>value = [46, 0]<br/>class = no>, fillcolor="#e58139"] ;
2 -> 6 ;
7 [label=<total_shareholders_funds &le; 0.501<br/>gini = 0.471<br/>samples = 158<br/>value = [87, 142]<br/>class = true>, fillcolor="#b2d9f5"] ;
1 -> 7 ;
8 [label=<company &le; 0.123<br/>gini = 0.365<br/>samples = 51<br/>value = [18, 57]<br/>class = true>, fillcolor="#78bced"] ;
7 -> 8 ;
9 [label=<gini = 0.375<br/>samples = 4<br/>value = [6, 2]<br/>class = no>, fillcolor="#eeab7b"] ;
8 -> 9 ;
10 [label=<gini = 0.294<br/>samples = 47<br/>value = [12, 55]<br/>class = true>, fillcolor="#64b2eb"] ;
8 -> 10 ;
11 [label=<net_cash_used_from_financing_activities &le; 0.52<br/>gini = 0.495<br/>samples = 107<br/>value = [69, 85]<br/>class = true>, fillcolor="#daedfa"] ;
7 -> 11 ;
12 [label=<gini = 0.346<br/>samples = 40<br/>value = [14, 49]<br/>class = true>, fillcolor="#72b9ec"] ;
11 -> 12 ;
13 [label=<gini = 0.478<br/>samples = 67<br/>value = [55, 36]<br/>class = no>, fillcolor="#f6d3bb"] ;
11 -> 13 ;
14 [label=<EPS_diluted &le; 0.338<br/>gini = 0.328<br/>samples = 293<br/>value = [379, 99]<br/>class = no>, fillcolor="#eca26d"] ;
0 -> 14 [labeldistance=2.5, labelangle=-45, headlabel="False"] ;
15 [label=<total_tax &le; 0.316<br/>gini = 0.408<br/>samples = 157<br/>value = [175, 70]<br/>class = no>, fillcolor="#efb388"] ;
14 -> 15 ;
16 [label=<total_reserves_and_surplus &le; 0.494<br/>gini = 0.388<br/>samples = 149<br/>value = [173, 62]<br/>class = no>, fillcolor="#eeae80"] ;
15 -> 16 ;
17 [label=<gini = 0.476<br/>samples = 41<br/>value = [42, 27]<br/>class = no>, fillcolor="#f6d2b8"] ;
16 -> 17 ;
18 [label=<gini = 0.333<br/>samples = 108<br/>value = [131, 35]<br/>class = no>, fillcolor="#eca36e"] ;
16 -> 18 ;
19 [label=<total_oper_revenue &le; 0.481<br/>gini = 0.32<br/>samples = 8<br/>value = [2, 8]<br/>class = true>, fillcolor="#6ab6ec"] ;
15 -> 19 ;
20 [label=<gini = 0.198<br/>samples = 7<br/>value = [1, 8]<br/>class = true>, fillcolor="#52a9e8"] ;
19 -> 20 ;
21 [label=<gini = 0.0<br/>samples = 1<br/>value = [1, 0]<br/>class = no>, fillcolor="#e58139"] ;
19 -> 21 ;
22 [label=<cogs &le; 0.262<br/>gini = 0.218<br/>samples = 136<br/>value = [204, 29]<br/>class = no>, fillcolor="#e99355"] ;
14 -> 22 ;
23 [label=<total_current_assets &le; 0.829<br/>gini = 0.126<br/>samples = 102<br/>value = [166, 12]<br/>class = no>, fillcolor="#e78a47"] ;
22 -> 23 ;
24 [label=<gini = 0.099<br/>samples = 99<br/>value = [164, 9]<br/>class = no>, fillcolor="#e68844"] ;
23 -> 24 ;
25 [label=<gini = 0.48<br/>samples = 3<br/>value = [2, 3]<br/>class = true>, fillcolor="#bddef6"] ;
23 -> 25 ;
26 [label=<netIncome_beforeExceptional_tax &le; 0.48<br/>gini = 0.427<br/>samples = 34<br/>value = [38, 17]<br/>class = no>, fillcolor="#f1b992"] ;
22 -> 26 ;
27 [label=<gini = 0.472<br/>samples = 12<br/>value = [8, 13]<br/>class = true>, fillcolor="#b3d9f5"] ;
26 -> 27 ;
28 [label=<gini = 0.208<br/>samples = 22<br/>value = [30, 4]<br/>class = no>, fillcolor="#e89253"] ;
26 -> 28 ;
}
