digraph Tree {
node [shape=box, style="filled, rounded", color="black", fontname="helvetica"] ;
edge [fontname="helvetica"] ;
0 [label=<total_shareholders_funds &le; 0.501<br/>gini = 0.441<br/>samples = 499<br/>value = [537, 263]<br/>class = no>, fillcolor="#f2bf9a"] ;
1 [label=<total_current_assets &le; 0.022<br/>gini = 0.369<br/>samples = 54<br/>value = [22, 68]<br/>class = true>, fillcolor="#79bded"] ;
0 -> 1 [labeldistance=2.5, labelangle=45, headlabel="True"] ;
2 [label=<EPS_basic &le; 0.324<br/>gini = 0.486<br/>samples = 20<br/>value = [15, 21]<br/>class = true>, fillcolor="#c6e3f8"] ;
1 -> 2 ;
3 [label=<total_assets &le; 0.113<br/>gini = 0.231<br/>samples = 7<br/>value = [2, 13]<br/>class = true>, fillcolor="#57ace9"] ;
2 -> 3 ;
4 [label=<gini = 0.0<br/>samples = 6<br/>value = [0, 13]<br/>class = true>, fillcolor="#399de5"] ;
3 -> 4 ;
5 [label=<gini = 0.0<br/>samples = 1<br/>value = [2, 0]<br/>class = no>, fillcolor="#e58139"] ;
3 -> 5 ;
6 [label=<depr_amort &le; 0.002<br/>gini = 0.472<br/>samples = 13<br/>value = [13, 8]<br/>class = no>, fillcolor="#f5cfb3"] ;
2 -> 6 ;
7 [label=<gini = 0.5<br/>samples = 11<br/>value = [8, 8]<br/>class = no>, fillcolor="#ffffff"] ;
6 -> 7 ;
8 [label=<gini = 0.0<br/>samples = 2<br/>value = [5, 0]<br/>class = no>, fillcolor="#e58139"] ;
6 -> 8 ;
9 [label=<trade_payables &le; 0.05<br/>gini = 0.226<br/>samples = 34<br/>value = [7, 47]<br/>class = true>, fillcolor="#56ace9"] ;
1 -> 9 ;
10 [label=<total_non.current_liabilities &le; 0.359<br/>gini = 0.32<br/>samples = 22<br/>value = [7, 28]<br/>class = true>, fillcolor="#6ab6ec"] ;
9 -> 10 ;
11 [label=<gini = 0.257<br/>samples = 20<br/>value = [5, 28]<br/>class = true>, fillcolor="#5caeea"] ;
10 -> 11 ;
12 [label=<gini = 0.0<br/>samples = 2<br/>value = [2, 0]<br/>class = no>, fillcolor="#e58139"] ;
10 -> 12 ;
13 [label=<gini = 0.0<br/>samples = 12<br/>value = [0, 19]<br/>class = true>, fillcolor="#399de5"] ;
9 -> 13 ;
14 [label=<short_term_borrowings &le; 0.265<br/>gini = 0.398<br/>samples = 445<br/>value = [515, 195]<br/>class = no>, fillcolor="#efb184"] ;
0 -> 14 [labeldistance=2.5, labelangle=-45, headlabel="False"] ;
15 [label=<EPS_basic &le; 0.316<br/>gini = 0.378<br/>samples = 404<br/>value = [484, 164]<br/>class = no>, fillcolor="#eeac7c"] ;
14 -> 15 ;
16 [label=<total_oper_revenue &le; 0.098<br/>gini = 0.273<br/>samples = 30<br/>value = [7, 36]<br/>class = true>, fillcolor="#5fb0ea"] ;
15 -> 16 ;
17 [label=<gini = 0.08<br/>samples = 16<br/>value = [1, 23]<br/>class = true>, fillcolor="#42a1e6"] ;
16 -> 17 ;
18 [label=<gini = 0.432<br/>samples = 14<br/>value = [6, 13]<br/>class = true>, fillcolor="#94caf1"] ;
16 -> 18 ;
19 [label=<short_term_provisions &le; 0.436<br/>gini = 0.334<br/>samples = 374<br/>value = [477, 128]<br/>class = no>, fillcolor="#eca36e"] ;
15 -> 19 ;
20 [label=<gini = 0.324<br/>samples = 372<br/>value = [477, 122]<br/>class = no>, fillcolor="#eca16c"] ;
19 -> 20 ;
21 [label=<gini = 0.0<br/>samples = 2<br/>value = [0, 6]<br/>class = true>, fillcolor="#399de5"] ;
19 -> 21 ;
22 [label=<EAT_before_Extraordinary &le; 0.506<br/>gini = 0.5<br/>samples = 41<br/>value = [31, 31]<br/>class = no>, fillcolor="#ffffff"] ;
14 -> 22 ;
23 [label=<short_term_provisions &le; 0.001<br/>gini = 0.231<br/>samples = 21<br/>value = [4, 26]<br/>class = true>, fillcolor="#57ace9"] ;
22 -> 23 ;
24 [label=<gini = 0.375<br/>samples = 4<br/>value = [3, 1]<br/>class = no>, fillcolor="#eeab7b"] ;
23 -> 24 ;
25 [label=<gini = 0.074<br/>samples = 17<br/>value = [1, 25]<br/>class = true>, fillcolor="#41a1e6"] ;
23 -> 25 ;
26 [label=<total_current_assets &le; 0.79<br/>gini = 0.264<br/>samples = 20<br/>value = [27, 5]<br/>class = no>, fillcolor="#ea985e"] ;
22 -> 26 ;
27 [label=<gini = 0.069<br/>samples = 18<br/>value = [27, 1]<br/>class = no>, fillcolor="#e68640"] ;
26 -> 27 ;
28 [label=<gini = 0.0<br/>samples = 2<br/>value = [0, 4]<br/>class = true>, fillcolor="#399de5"] ;
26 -> 28 ;
}
