digraph Tree {
node [shape=box, style="filled, rounded", color="black", fontname="helvetica"] ;
edge [fontname="helvetica"] ;
0 [label=<EPS_basic &le; 0.33<br/>gini = 0.454<br/>samples = 508<br/>value = [521, 279]<br/>class = no>, fillcolor="#f3c4a3"] ;
1 [label=<net_cash_used_from_financing_activities &le; 0.524<br/>gini = 0.452<br/>samples = 144<br/>value = [80, 152]<br/>class = true>, fillcolor="#a1d1f3"] ;
0 -> 1 [labeldistance=2.5, labelangle=45, headlabel="True"] ;
2 [label=<other_earnings &le; 0.02<br/>gini = 0.39<br/>samples = 97<br/>value = [42, 116]<br/>class = true>, fillcolor="#81c0ee"] ;
1 -> 2 ;
3 [label=<long_term_provisions &le; 0.0<br/>gini = 0.352<br/>samples = 91<br/>value = [34, 115]<br/>class = true>, fillcolor="#74baed"] ;
2 -> 3 ;
4 [label=<gini = 0.46<br/>samples = 34<br/>value = [19, 34]<br/>class = true>, fillcolor="#a8d4f4"] ;
3 -> 4 ;
5 [label=<gini = 0.264<br/>samples = 57<br/>value = [15, 81]<br/>class = true>, fillcolor="#5eafea"] ;
3 -> 5 ;
6 [label=<other_long_term_liabilities &le; 0.063<br/>gini = 0.198<br/>samples = 6<br/>value = [8, 1]<br/>class = no>, fillcolor="#e89152"] ;
2 -> 6 ;
7 [label=<gini = 0.0<br/>samples = 5<br/>value = [8, 0]<br/>class = no>, fillcolor="#e58139"] ;
6 -> 7 ;
8 [label=<gini = 0.0<br/>samples = 1<br/>value = [0, 1]<br/>class = true>, fillcolor="#399de5"] ;
6 -> 8 ;
9 [label=<changeInventory &le; 0.69<br/>gini = 0.5<br/>samples = 47<br/>value = [38, 36]<br/>class = no>, fillcolor="#fef8f5"] ;
1 -> 9 ;
10 [label=<employeeBenefits &le; 0.088<br/>gini = 0.111<br/>samples = 8<br/>value = [16, 1]<br/>class = no>, fillcolor="#e78945"] ;
9 -> 10 ;
11 [label=<gini = 0.0<br/>samples = 7<br/>value = [16, 0]<br/>class = no>, fillcolor="#e58139"] ;
10 -> 11 ;
12 [label=<gini = 0.0<br/>samples = 1<br/>value = [0, 1]<br/>class = true>, fillcolor="#399de5"] ;
10 -> 12 ;
13 [label=<cash_and_equivalents_year_end &le; 0.385<br/>gini = 0.474<br/>samples = 39<br/>value = [22, 35]<br/>class = true>, fillcolor="#b5dbf5"] ;
9 -> 13 ;
14 [label=<gini = 0.493<br/>samples = 23<br/>value = [19, 15]<br/>class = no>, fillcolor="#fae4d5"] ;
13 -> 14 ;
15 [label=<gini = 0.227<br/>samples = 16<br/>value = [3, 20]<br/>class = true>, fillcolor="#57ace9"] ;
13 -> 15 ;
16 [label=<taxDividend &le; 0.0<br/>gini = 0.347<br/>samples = 364<br/>value = [441, 127]<br/>class = no>, fillcolor="#eca572"] ;
0 -> 16 [labeldistance=2.5, labelangle=-45, headlabel="False"] ;
17 [label=<short_term_provisions &le; 0.014<br/>gini = 0.403<br/>samples = 230<br/>value = [257, 100]<br/>class = no>, fillcolor="#efb286"] ;
16 -> 17 ;
18 [label=<less_levies &le; 0.035<br/>gini = 0.38<br/>samples = 215<br/>value = [251, 86]<br/>class = no>, fillcolor="#eeac7d"] ;
17 -> 18 ;
19 [label=<gini = 0.36<br/>samples = 207<br/>value = [247, 76]<br/>class = no>, fillcolor="#eda876"] ;
18 -> 19 ;
20 [label=<gini = 0.408<br/>samples = 8<br/>value = [4, 10]<br/>class = true>, fillcolor="#88c4ef"] ;
18 -> 20 ;
21 [label=<long_term_borrowings &le; 0.022<br/>gini = 0.42<br/>samples = 15<br/>value = [6, 14]<br/>class = true>, fillcolor="#8ec7f0"] ;
17 -> 21 ;
22 [label=<gini = 0.0<br/>samples = 7<br/>value = [0, 12]<br/>class = true>, fillcolor="#399de5"] ;
21 -> 22 ;
23 [label=<gini = 0.375<br/>samples = 8<br/>value = [6, 2]<br/>class = no>, fillcolor="#eeab7b"] ;
21 -> 23 ;
24 [label=<total_expenses &le; 0.797<br/>gini = 0.223<br/>samples = 134<br/>value = [184, 27]<br/>class = no>, fillcolor="#e99356"] ;
16 -> 24 ;
25 [label=<net_cash_used_from_financing_activities &le; 0.506<br/>gini = 0.174<br/>samples = 125<br/>value = [178, 19]<br/>class = no>, fillcolor="#e88e4e"] ;
24 -> 25 ;
26 [label=<gini = 0.37<br/>samples = 35<br/>value = [37, 12]<br/>class = no>, fillcolor="#edaa79"] ;
25 -> 26 ;
27 [label=<gini = 0.09<br/>samples = 90<br/>value = [141, 7]<br/>class = no>, fillcolor="#e68743"] ;
25 -> 27 ;
28 [label=<NetIncome &le; 0.512<br/>gini = 0.49<br/>samples = 9<br/>value = [6, 8]<br/>class = true>, fillcolor="#cee6f8"] ;
24 -> 28 ;
29 [label=<gini = 0.0<br/>samples = 4<br/>value = [0, 8]<br/>class = true>, fillcolor="#399de5"] ;
28 -> 29 ;
30 [label=<gini = 0.0<br/>samples = 5<br/>value = [6, 0]<br/>class = no>, fillcolor="#e58139"] ;
28 -> 30 ;
}
