digraph Tree {
node [shape=box, style="filled, rounded", color="black", fontname="helvetica"] ;
edge [fontname="helvetica"] ;
0 [label=<EPS_basic &le; 0.328<br/>gini = 0.429<br/>samples = 490<br/>value = [551, 249]<br/>class = no>, fillcolor="#f1ba92"] ;
1 [label=<EPS_basic &le; 0.323<br/>gini = 0.431<br/>samples = 108<br/>value = [55, 120]<br/>class = true>, fillcolor="#94caf1"] ;
0 -> 1 [labeldistance=2.5, labelangle=45, headlabel="True"] ;
2 [label=<employeeBenefits &le; 0.806<br/>gini = 0.345<br/>samples = 70<br/>value = [25, 88]<br/>class = true>, fillcolor="#71b9ec"] ;
1 -> 2 ;
3 [label=<total_non.current_liabilities &le; 0.848<br/>gini = 0.32<br/>samples = 69<br/>value = [22, 88]<br/>class = true>, fillcolor="#6ab6ec"] ;
2 -> 3 ;
4 [label=<gini = 0.302<br/>samples = 68<br/>value = [20, 88]<br/>class = true>, fillcolor="#66b3eb"] ;
3 -> 4 ;
5 [label=<gini = 0.0<br/>samples = 1<br/>value = [2, 0]<br/>class = no>, fillcolor="#e58139"] ;
3 -> 5 ;
6 [label=<gini = 0.0<br/>samples = 1<br/>value = [3, 0]<br/>class = no>, fillcolor="#e58139"] ;
2 -> 6 ;
7 [label=<cash_and_equivalents_year_begin &le; 0.19<br/>gini = 0.499<br/>samples = 38<br/>value = [30, 32]<br/>class = true>, fillcolor="#f3f9fd"] ;
1 -> 7 ;
8 [label=<purchaseStock &le; 0.03<br/>gini = 0.49<br/>samples = 34<br/>value = [24, 32]<br/>class = true>, fillcolor="#cee6f8"] ;
7 -> 8 ;
9 [label=<gini = 0.408<br/>samples = 22<br/>value = [10, 25]<br/>class = true>, fillcolor="#88c4ef"] ;
8 -> 9 ;
10 [label=<gini = 0.444<br/>samples = 12<br/>value = [14, 7]<br/>class = no>, fillcolor="#f2c09c"] ;
8 -> 10 ;
11 [label=<gini = 0.0<br/>samples = 4<br/>value = [6, 0]<br/>class = no>, fillcolor="#e58139"] ;
7 -> 11 ;
12 [label=<netIncome_beforeExceptional_tax &le; 0.453<br/>gini = 0.328<br/>samples = 382<br/>value = [496, 129]<br/>class = no>, fillcolor="#eca26c"] ;
0 -> 12 [labeldistance=2.5, labelangle=-45, headlabel="False"] ;
13 [label=<current_tax &le; 0.155<br/>gini = 0.482<br/>samples = 61<br/>value = [63, 43]<br/>class = no>, fillcolor="#f7d7c0"] ;
12 -> 13 ;
14 [label=<total_current_liabilities &le; 0.005<br/>gini = 0.497<br/>samples = 54<br/>value = [50, 43]<br/>class = no>, fillcolor="#fbede3"] ;
13 -> 14 ;
15 [label=<gini = 0.332<br/>samples = 21<br/>value = [30, 8]<br/>class = no>, fillcolor="#eca36e"] ;
14 -> 15 ;
16 [label=<gini = 0.463<br/>samples = 33<br/>value = [20, 35]<br/>class = true>, fillcolor="#aad5f4"] ;
14 -> 16 ;
17 [label=<gini = 0.0<br/>samples = 7<br/>value = [13, 0]<br/>class = no>, fillcolor="#e58139"] ;
13 -> 17 ;
18 [label=<category &le; 0.034<br/>gini = 0.276<br/>samples = 321<br/>value = [433, 86]<br/>class = no>, fillcolor="#ea9a60"] ;
12 -> 18 ;
19 [label=<net_cash_used_in_investing_activities &le; 0.515<br/>gini = 0.49<br/>samples = 10<br/>value = [12, 9]<br/>class = no>, fillcolor="#f8e0ce"] ;
18 -> 19 ;
20 [label=<gini = 0.0<br/>samples = 7<br/>value = [12, 0]<br/>class = no>, fillcolor="#e58139"] ;
19 -> 20 ;
21 [label=<gini = 0.0<br/>samples = 3<br/>value = [0, 9]<br/>class = true>, fillcolor="#399de5"] ;
19 -> 21 ;
22 [label=<net_cash_used_from_financing_activities &le; 0.525<br/>gini = 0.261<br/>samples = 311<br/>value = [421, 77]<br/>class = no>, fillcolor="#ea985d"] ;
18 -> 22 ;
23 [label=<gini = 0.312<br/>samples = 224<br/>value = [284, 68]<br/>class = no>, fillcolor="#eb9f68"] ;
22 -> 23 ;
24 [label=<gini = 0.116<br/>samples = 87<br/>value = [137, 9]<br/>class = no>, fillcolor="#e78946"] ;
22 -> 24 ;
}
