digraph Tree {
node [shape=box, style="filled, rounded", color="black", fontname="helvetica"] ;
edge [fontname="helvetica"] ;
0 [label=<earnings_continuing_operations &le; 0.488<br/>gini = 0.44<br/>samples = 505<br/>value = [539, 261]<br/>class = no>, fillcolor="#f2be99"] ;
1 [label=<total_share_capital &le; 0.28<br/>gini = 0.491<br/>samples = 120<br/>value = [85, 111]<br/>class = true>, fillcolor="#d1e8f9"] ;
0 -> 1 [labeldistance=2.5, labelangle=45, headlabel="True"] ;
2 [label=<changeInventory &le; 0.695<br/>gini = 0.496<br/>samples = 112<br/>value = [85, 101]<br/>class = true>, fillcolor="#e0effb"] ;
1 -> 2 ;
3 [label=<other_operating_revenues &le; 0.005<br/>gini = 0.328<br/>samples = 22<br/>value = [23, 6]<br/>class = no>, fillcolor="#eca26d"] ;
2 -> 3 ;
4 [label=<gini = 0.165<br/>samples = 15<br/>value = [20, 2]<br/>class = no>, fillcolor="#e88e4d"] ;
3 -> 4 ;
5 [label=<gini = 0.49<br/>samples = 7<br/>value = [3, 4]<br/>class = true>, fillcolor="#cee6f8"] ;
3 -> 5 ;
6 [label=<tangible_assets &le; 0.061<br/>gini = 0.478<br/>samples = 90<br/>value = [62, 95]<br/>class = true>, fillcolor="#baddf6"] ;
2 -> 6 ;
7 [label=<gini = 0.393<br/>samples = 55<br/>value = [25, 68]<br/>class = true>, fillcolor="#82c1ef"] ;
6 -> 7 ;
8 [label=<gini = 0.488<br/>samples = 35<br/>value = [37, 27]<br/>class = no>, fillcolor="#f8ddc9"] ;
6 -> 8 ;
9 [label=<gini = 0.0<br/>samples = 8<br/>value = [0, 10]<br/>class = true>, fillcolor="#399de5"] ;
1 -> 9 ;
10 [label=<netIncome_beforeExceptional_tax &le; 0.455<br/>gini = 0.373<br/>samples = 385<br/>value = [454, 150]<br/>class = no>, fillcolor="#eeab7a"] ;
0 -> 10 [labeldistance=2.5, labelangle=-45, headlabel="False"] ;
11 [label=<short_term_provisions &le; 0.0<br/>gini = 0.455<br/>samples = 179<br/>value = [182, 98]<br/>class = no>, fillcolor="#f3c5a4"] ;
10 -> 11 ;
12 [label=<capital_work.in.progress &le; 0.544<br/>gini = 0.338<br/>samples = 102<br/>value = [124, 34]<br/>class = no>, fillcolor="#eca46f"] ;
11 -> 12 ;
13 [label=<gini = 0.314<br/>samples = 101<br/>value = [124, 30]<br/>class = no>, fillcolor="#eb9f69"] ;
12 -> 13 ;
14 [label=<gini = 0.0<br/>samples = 1<br/>value = [0, 4]<br/>class = true>, fillcolor="#399de5"] ;
12 -> 14 ;
15 [label=<total_current_assets &le; 0.009<br/>gini = 0.499<br/>samples = 77<br/>value = [58, 64]<br/>class = true>, fillcolor="#ecf6fd"] ;
11 -> 15 ;
16 [label=<gini = 0.312<br/>samples = 22<br/>value = [6, 25]<br/>class = true>, fillcolor="#69b5eb"] ;
15 -> 16 ;
17 [label=<gini = 0.49<br/>samples = 55<br/>value = [52, 39]<br/>class = no>, fillcolor="#f8e0ce"] ;
15 -> 17 ;
18 [label=<category &le; 0.399<br/>gini = 0.269<br/>samples = 206<br/>value = [272, 52]<br/>class = no>, fillcolor="#ea995f"] ;
10 -> 18 ;
19 [label=<total_current_assets &le; 0.03<br/>gini = 0.056<br/>samples = 80<br/>value = [135, 4]<br/>class = no>, fillcolor="#e6853f"] ;
18 -> 19 ;
20 [label=<gini = 0.133<br/>samples = 32<br/>value = [52, 4]<br/>class = no>, fillcolor="#e78b48"] ;
19 -> 20 ;
21 [label=<gini = 0.0<br/>samples = 48<br/>value = [83, 0]<br/>class = no>, fillcolor="#e58139"] ;
19 -> 21 ;
22 [label=<total_non.current_assets &le; 0.033<br/>gini = 0.384<br/>samples = 126<br/>value = [137, 48]<br/>class = no>, fillcolor="#eead7e"] ;
18 -> 22 ;
23 [label=<gini = 0.128<br/>samples = 42<br/>value = [54, 4]<br/>class = no>, fillcolor="#e78a48"] ;
22 -> 23 ;
24 [label=<gini = 0.453<br/>samples = 84<br/>value = [83, 44]<br/>class = no>, fillcolor="#f3c4a2"] ;
22 -> 24 ;
}
