digraph Tree {
node [shape=box, style="filled, rounded", color="black", fontname="helvetica"] ;
edge [fontname="helvetica"] ;
0 [label=<EPS_basic &le; 0.33<br/>gini = 0.457<br/>samples = 505<br/>value = [517, 283]<br/>class = no>, fillcolor="#f3c6a5"] ;
1 [label=<other_income &le; 0.007<br/>gini = 0.401<br/>samples = 129<br/>value = [55, 143]<br/>class = true>, fillcolor="#85c3ef"] ;
0 -> 1 [labeldistance=2.5, labelangle=45, headlabel="True"] ;
2 [label=<total_current_assets &le; 0.025<br/>gini = 0.485<br/>samples = 50<br/>value = [31, 44]<br/>class = true>, fillcolor="#c4e2f7"] ;
1 -> 2 ;
3 [label=<earnings_continuing_operations &le; 0.488<br/>gini = 0.489<br/>samples = 26<br/>value = [23, 17]<br/>class = no>, fillcolor="#f8decb"] ;
2 -> 3 ;
4 [label=<gini = 0.366<br/>samples = 22<br/>value = [22, 7]<br/>class = no>, fillcolor="#eda978"] ;
3 -> 4 ;
5 [label=<gini = 0.165<br/>samples = 4<br/>value = [1, 10]<br/>class = true>, fillcolor="#4da7e8"] ;
3 -> 5 ;
6 [label=<less_levies &le; 0.012<br/>gini = 0.353<br/>samples = 24<br/>value = [8, 27]<br/>class = true>, fillcolor="#74baed"] ;
2 -> 6 ;
7 [label=<gini = 0.298<br/>samples = 23<br/>value = [6, 27]<br/>class = true>, fillcolor="#65b3eb"] ;
6 -> 7 ;
8 [label=<gini = 0.0<br/>samples = 1<br/>value = [2, 0]<br/>class = no>, fillcolor="#e58139"] ;
6 -> 8 ;
9 [label=<total_reserves_and_surplus &le; 0.584<br/>gini = 0.314<br/>samples = 79<br/>value = [24, 99]<br/>class = true>, fillcolor="#69b5eb"] ;
1 -> 9 ;
10 [label=<cogs &le; 0.021<br/>gini = 0.177<br/>samples = 59<br/>value = [9, 83]<br/>class = true>, fillcolor="#4ea8e8"] ;
9 -> 10 ;
11 [label=<gini = 0.0<br/>samples = 32<br/>value = [0, 48]<br/>class = true>, fillcolor="#399de5"] ;
10 -> 11 ;
12 [label=<gini = 0.325<br/>samples = 27<br/>value = [9, 35]<br/>class = true>, fillcolor="#6cb6ec"] ;
10 -> 12 ;
13 [label=<changeInventory &le; 0.698<br/>gini = 0.499<br/>samples = 20<br/>value = [15, 16]<br/>class = true>, fillcolor="#f3f9fd"] ;
9 -> 13 ;
14 [label=<gini = 0.454<br/>samples = 14<br/>value = [15, 8]<br/>class = no>, fillcolor="#f3c4a3"] ;
13 -> 14 ;
15 [label=<gini = 0.0<br/>samples = 6<br/>value = [0, 8]<br/>class = true>, fillcolor="#399de5"] ;
13 -> 15 ;
16 [label=<EBT &le; 0.461<br/>gini = 0.357<br/>samples = 376<br/>value = [462, 140]<br/>class = no>, fillcolor="#eda775"] ;
0 -> 16 [labeldistance=2.5, labelangle=-45, headlabel="False"] ;
17 [label=<revenueNet &le; 0.318<br/>gini = 0.384<br/>samples = 312<br/>value = [378, 132]<br/>class = no>, fillcolor="#eead7e"] ;
16 -> 17 ;
18 [label=<total_tax &le; 0.306<br/>gini = 0.344<br/>samples = 272<br/>value = [342, 97]<br/>class = no>, fillcolor="#eca571"] ;
17 -> 18 ;
19 [label=<gini = 0.329<br/>samples = 264<br/>value = [339, 89]<br/>class = no>, fillcolor="#eca26d"] ;
18 -> 19 ;
20 [label=<gini = 0.397<br/>samples = 8<br/>value = [3, 8]<br/>class = true>, fillcolor="#83c2ef"] ;
18 -> 20 ;
21 [label=<long_term_provisions &le; 0.0<br/>gini = 0.5<br/>samples = 40<br/>value = [36, 35]<br/>class = no>, fillcolor="#fefcfa"] ;
17 -> 21 ;
22 [label=<gini = 0.208<br/>samples = 11<br/>value = [15, 2]<br/>class = no>, fillcolor="#e89253"] ;
21 -> 22 ;
23 [label=<gini = 0.475<br/>samples = 29<br/>value = [21, 33]<br/>class = true>, fillcolor="#b7dbf6"] ;
21 -> 23 ;
24 [label=<fixed_assets &le; 0.856<br/>gini = 0.159<br/>samples = 64<br/>value = [84, 8]<br/>class = no>, fillcolor="#e78d4c"] ;
16 -> 24 ;
25 [label=<exceptionalItems &le; 0.822<br/>gini = 0.11<br/>samples = 59<br/>value = [81, 5]<br/>class = no>, fillcolor="#e78945"] ;
24 -> 25 ;
26 [label=<gini = 0.069<br/>samples = 58<br/>value = [81, 3]<br/>class = no>, fillcolor="#e68640"] ;
25 -> 26 ;
27 [label=<gini = 0.0<br/>samples = 1<br/>value = [0, 2]<br/>class = true>, fillcolor="#399de5"] ;
25 -> 27 ;
28 [label=<long_term_provisions &le; 0.005<br/>gini = 0.5<br/>samples = 5<br/>value = [3, 3]<br/>class = no>, fillcolor="#ffffff"] ;
24 -> 28 ;
29 [label=<gini = 0.0<br/>samples = 2<br/>value = [3, 0]<br/>class = no>, fillcolor="#e58139"] ;
28 -> 29 ;
30 [label=<gini = 0.0<br/>samples = 3<br/>value = [0, 3]<br/>class = true>, fillcolor="#399de5"] ;
28 -> 30 ;
}
