digraph Tree {
node [shape=box, style="filled, rounded", color="black", fontname="helvetica"] ;
edge [fontname="helvetica"] ;
0 [label=<changeInventory &le; 0.717<br/>gini = 0.455<br/>samples = 512<br/>value = [520, 280]<br/>class = no>, fillcolor="#f3c5a4"] ;
1 [label=<EAT_before_Extraordinary &le; 0.495<br/>gini = 0.442<br/>samples = 494<br/>value = [516, 254]<br/>class = no>, fillcolor="#f2bf9a"] ;
0 -> 1 [labeldistance=2.5, labelangle=45, headlabel="True"] ;
2 [label=<trade_receivables &le; 0.001<br/>gini = 0.481<br/>samples = 108<br/>value = [71, 105]<br/>class = true>, fillcolor="#bfdff7"] ;
1 -> 2 ;
3 [label=<changeInventory &le; 0.694<br/>gini = 0.071<br/>samples = 16<br/>value = [1, 26]<br/>class = true>, fillcolor="#41a1e6"] ;
2 -> 3 ;
4 [label=<gini = 0.375<br/>samples = 2<br/>value = [1, 3]<br/>class = true>, fillcolor="#7bbeee"] ;
3 -> 4 ;
5 [label=<gini = 0.0<br/>samples = 14<br/>value = [0, 23]<br/>class = true>, fillcolor="#399de5"] ;
3 -> 5 ;
6 [label=<netIncome_beforeExceptional_tax &le; 0.41<br/>gini = 0.498<br/>samples = 92<br/>value = [70, 79]<br/>class = true>, fillcolor="#e8f4fc"] ;
2 -> 6 ;
7 [label=<gini = 0.343<br/>samples = 24<br/>value = [9, 32]<br/>class = true>, fillcolor="#71b9ec"] ;
6 -> 7 ;
8 [label=<gini = 0.492<br/>samples = 68<br/>value = [61, 47]<br/>class = no>, fillcolor="#f9e2d2"] ;
6 -> 8 ;
9 [label=<total_reserves_and_surplus &le; 0.491<br/>gini = 0.376<br/>samples = 386<br/>value = [445, 149]<br/>class = no>, fillcolor="#eeab7b"] ;
1 -> 9 ;
10 [label=<other_expenses &le; 0.0<br/>gini = 0.49<br/>samples = 55<br/>value = [48, 36]<br/>class = no>, fillcolor="#f8e0ce"] ;
9 -> 10 ;
11 [label=<gini = 0.188<br/>samples = 12<br/>value = [17, 2]<br/>class = no>, fillcolor="#e89050"] ;
10 -> 11 ;
12 [label=<gini = 0.499<br/>samples = 43<br/>value = [31, 34]<br/>class = true>, fillcolor="#eef6fd"] ;
10 -> 12 ;
13 [label=<tangible_assets &le; 0.917<br/>gini = 0.345<br/>samples = 331<br/>value = [397, 113]<br/>class = no>, fillcolor="#eca571"] ;
9 -> 13 ;
14 [label=<gini = 0.335<br/>samples = 326<br/>value = [396, 107]<br/>class = no>, fillcolor="#eca36f"] ;
13 -> 14 ;
15 [label=<gini = 0.245<br/>samples = 5<br/>value = [1, 6]<br/>class = true>, fillcolor="#5aade9"] ;
13 -> 15 ;
16 [label=<depr_amort &le; 0.036<br/>gini = 0.231<br/>samples = 18<br/>value = [4, 26]<br/>class = true>, fillcolor="#57ace9"] ;
0 -> 16 [labeldistance=2.5, labelangle=-45, headlabel="False"] ;
17 [label=<gini = 0.0<br/>samples = 8<br/>value = [0, 18]<br/>class = true>, fillcolor="#399de5"] ;
16 -> 17 ;
18 [label=<cash_and_cash_equivalents &le; 0.042<br/>gini = 0.444<br/>samples = 10<br/>value = [4, 8]<br/>class = true>, fillcolor="#9ccef2"] ;
16 -> 18 ;
19 [label=<other_expenses &le; 0.186<br/>gini = 0.444<br/>samples = 6<br/>value = [4, 2]<br/>class = no>, fillcolor="#f2c09c"] ;
18 -> 19 ;
20 [label=<gini = 0.0<br/>samples = 3<br/>value = [3, 0]<br/>class = no>, fillcolor="#e58139"] ;
19 -> 20 ;
21 [label=<gini = 0.444<br/>samples = 3<br/>value = [1, 2]<br/>class = true>, fillcolor="#9ccef2"] ;
19 -> 21 ;
22 [label=<gini = 0.0<br/>samples = 4<br/>value = [0, 6]<br/>class = true>, fillcolor="#399de5"] ;
18 -> 22 ;
}
