digraph Tree {
node [shape=box, style="filled, rounded", color="black", fontname="helvetica"] ;
edge [fontname="helvetica"] ;
0 [label=<EPS_basic &le; 0.326<br/>gini = 0.455<br/>samples = 500<br/>value = [520, 280]<br/>class = no>, fillcolor="#f3c5a4"] ;
1 [label=<total_share_capital &le; 0.069<br/>gini = 0.37<br/>samples = 103<br/>value = [40, 123]<br/>class = true>, fillcolor="#79bded"] ;
0 -> 1 [labeldistance=2.5, labelangle=45, headlabel="True"] ;
2 [label=<other_expenses &le; 0.303<br/>gini = 0.44<br/>samples = 74<br/>value = [36, 74]<br/>class = true>, fillcolor="#99cdf2"] ;
1 -> 2 ;
3 [label=<category &le; 0.582<br/>gini = 0.411<br/>samples = 71<br/>value = [30, 74]<br/>class = true>, fillcolor="#89c5f0"] ;
2 -> 3 ;
4 [label=<gini = 0.473<br/>samples = 49<br/>value = [28, 45]<br/>class = true>, fillcolor="#b4daf5"] ;
3 -> 4 ;
5 [label=<gini = 0.121<br/>samples = 22<br/>value = [2, 29]<br/>class = true>, fillcolor="#47a4e7"] ;
3 -> 5 ;
6 [label=<gini = 0.0<br/>samples = 3<br/>value = [6, 0]<br/>class = no>, fillcolor="#e58139"] ;
2 -> 6 ;
7 [label=<employeeBenefits &le; 0.007<br/>gini = 0.14<br/>samples = 29<br/>value = [4, 49]<br/>class = true>, fillcolor="#49a5e7"] ;
1 -> 7 ;
8 [label=<tangible_assets &le; 0.346<br/>gini = 0.444<br/>samples = 3<br/>value = [2, 1]<br/>class = no>, fillcolor="#f2c09c"] ;
7 -> 8 ;
9 [label=<gini = 0.0<br/>samples = 2<br/>value = [2, 0]<br/>class = no>, fillcolor="#e58139"] ;
8 -> 9 ;
10 [label=<gini = 0.0<br/>samples = 1<br/>value = [0, 1]<br/>class = true>, fillcolor="#399de5"] ;
8 -> 10 ;
11 [label=<exceptionalItems &le; 0.263<br/>gini = 0.077<br/>samples = 26<br/>value = [2, 48]<br/>class = true>, fillcolor="#41a1e6"] ;
7 -> 11 ;
12 [label=<gini = 0.0<br/>samples = 1<br/>value = [1, 0]<br/>class = no>, fillcolor="#e58139"] ;
11 -> 12 ;
13 [label=<gini = 0.04<br/>samples = 25<br/>value = [1, 48]<br/>class = true>, fillcolor="#3d9fe6"] ;
11 -> 13 ;
14 [label=<taxDividend &le; 0.0<br/>gini = 0.371<br/>samples = 397<br/>value = [480, 157]<br/>class = no>, fillcolor="#eeaa7a"] ;
0 -> 14 [labeldistance=2.5, labelangle=-45, headlabel="False"] ;
15 [label=<total_shareholders_funds &le; 0.471<br/>gini = 0.42<br/>samples = 262<br/>value = [292, 125]<br/>class = no>, fillcolor="#f0b78e"] ;
14 -> 15 ;
16 [label=<total_capital_and_liabilities &le; 0.207<br/>gini = 0.111<br/>samples = 9<br/>value = [1, 16]<br/>class = true>, fillcolor="#45a3e7"] ;
15 -> 16 ;
17 [label=<gini = 0.0<br/>samples = 8<br/>value = [0, 16]<br/>class = true>, fillcolor="#399de5"] ;
16 -> 17 ;
18 [label=<gini = 0.0<br/>samples = 1<br/>value = [1, 0]<br/>class = no>, fillcolor="#e58139"] ;
16 -> 18 ;
19 [label=<changeInventory &le; 0.697<br/>gini = 0.396<br/>samples = 253<br/>value = [291, 109]<br/>class = no>, fillcolor="#efb083"] ;
15 -> 19 ;
20 [label=<gini = 0.365<br/>samples = 231<br/>value = [272, 86]<br/>class = no>, fillcolor="#eda978"] ;
19 -> 20 ;
21 [label=<gini = 0.495<br/>samples = 22<br/>value = [19, 23]<br/>class = true>, fillcolor="#ddeefa"] ;
19 -> 21 ;
22 [label=<net_inc.dec_in_cash_and_cash_equivalents &le; 0.298<br/>gini = 0.249<br/>samples = 135<br/>value = [188, 32]<br/>class = no>, fillcolor="#e9965b"] ;
14 -> 22 ;
23 [label=<capital_goods &le; 0.12<br/>gini = 0.32<br/>samples = 2<br/>value = [1, 4]<br/>class = true>, fillcolor="#6ab6ec"] ;
22 -> 23 ;
24 [label=<gini = 0.0<br/>samples = 1<br/>value = [1, 0]<br/>class = no>, fillcolor="#e58139"] ;
23 -> 24 ;
25 [label=<gini = 0.0<br/>samples = 1<br/>value = [0, 4]<br/>class = true>, fillcolor="#399de5"] ;
23 -> 25 ;
26 [label=<category &le; 0.995<br/>gini = 0.227<br/>samples = 133<br/>value = [187, 28]<br/>class = no>, fillcolor="#e99457"] ;
22 -> 26 ;
27 [label=<gini = 0.202<br/>samples = 132<br/>value = [187, 24]<br/>class = no>, fillcolor="#e89152"] ;
26 -> 27 ;
28 [label=<gini = 0.0<br/>samples = 1<br/>value = [0, 4]<br/>class = true>, fillcolor="#399de5"] ;
26 -> 28 ;
}
