digraph Tree {
node [shape=box, style="filled, rounded", color="black", fontname="helvetica"] ;
edge [fontname="helvetica"] ;
0 [label=<NetIncome &le; 0.483<br/>gini = 0.429<br/>samples = 512<br/>value = [551, 249]<br/>class = no>, fillcolor="#f1ba92"] ;
1 [label=<expenditure_in_foreign_currency &le; 0.128<br/>gini = 0.353<br/>samples = 68<br/>value = [24, 81]<br/>class = true>, fillcolor="#74baed"] ;
0 -> 1 [labeldistance=2.5, labelangle=45, headlabel="True"] ;
2 [label=<EPS_diluted &le; 0.33<br/>gini = 0.327<br/>samples = 66<br/>value = [21, 81]<br/>class = true>, fillcolor="#6cb6ec"] ;
1 -> 2 ;
3 [label=<net_cash_used_from_financing_activities &le; 0.524<br/>gini = 0.287<br/>samples = 63<br/>value = [17, 81]<br/>class = true>, fillcolor="#63b2ea"] ;
2 -> 3 ;
4 [label=<gini = 0.165<br/>samples = 40<br/>value = [6, 60]<br/>class = true>, fillcolor="#4da7e8"] ;
3 -> 4 ;
5 [label=<gini = 0.451<br/>samples = 23<br/>value = [11, 21]<br/>class = true>, fillcolor="#a1d0f3"] ;
3 -> 5 ;
6 [label=<gini = 0.0<br/>samples = 3<br/>value = [4, 0]<br/>class = no>, fillcolor="#e58139"] ;
2 -> 6 ;
7 [label=<gini = 0.0<br/>samples = 2<br/>value = [3, 0]<br/>class = no>, fillcolor="#e58139"] ;
1 -> 7 ;
8 [label=<depr_amort &le; 0.552<br/>gini = 0.367<br/>samples = 444<br/>value = [527, 168]<br/>class = no>, fillcolor="#eda978"] ;
0 -> 8 [labeldistance=2.5, labelangle=-45, headlabel="False"] ;
9 [label=<taxDividend &le; 0.0<br/>gini = 0.354<br/>samples = 439<br/>value = [526, 157]<br/>class = no>, fillcolor="#eda774"] ;
8 -> 9 ;
10 [label=<net_cashflow_from_operating_activities &le; 0.493<br/>gini = 0.413<br/>samples = 310<br/>value = [337, 139]<br/>class = no>, fillcolor="#f0b58b"] ;
9 -> 10 ;
11 [label=<gini = 0.374<br/>samples = 277<br/>value = [320, 106]<br/>class = no>, fillcolor="#eeab7b"] ;
10 -> 11 ;
12 [label=<gini = 0.449<br/>samples = 33<br/>value = [17, 33]<br/>class = true>, fillcolor="#9fcff2"] ;
10 -> 12 ;
13 [label=<total_non.current_liabilities &le; 0.961<br/>gini = 0.159<br/>samples = 129<br/>value = [189, 18]<br/>class = no>, fillcolor="#e78d4c"] ;
9 -> 13 ;
14 [label=<gini = 0.144<br/>samples = 128<br/>value = [189, 16]<br/>class = no>, fillcolor="#e78c4a"] ;
13 -> 14 ;
15 [label=<gini = 0.0<br/>samples = 1<br/>value = [0, 2]<br/>class = true>, fillcolor="#399de5"] ;
13 -> 15 ;
16 [label=<other_income &le; 0.122<br/>gini = 0.153<br/>samples = 5<br/>value = [1, 11]<br/>class = true>, fillcolor="#4ba6e7"] ;
8 -> 16 ;
17 [label=<gini = 0.0<br/>samples = 4<br/>value = [0, 11]<br/>class = true>, fillcolor="#399de5"] ;
16 -> 17 ;
18 [label=<gini = 0.0<br/>samples = 1<br/>value = [1, 0]<br/>class = no>, fillcolor="#e58139"] ;
16 -> 18 ;
}
