digraph Tree {
node [shape=box, style="filled, rounded", color="black", fontname="helvetica"] ;
edge [fontname="helvetica"] ;
0 [label=<total_shareholders_funds &le; 0.501<br/>gini = 0.447<br/>samples = 502<br/>value = [530, 270]<br/>class = no>, fillcolor="#f2c19e"] ;
1 [label=<EAT_before_Extraordinary &le; 0.495<br/>gini = 0.359<br/>samples = 52<br/>value = [19, 62]<br/>class = true>, fillcolor="#76bbed"] ;
0 -> 1 [labeldistance=2.5, labelangle=45, headlabel="True"] ;
2 [label=<company &le; 0.022<br/>gini = 0.172<br/>samples = 40<br/>value = [6, 57]<br/>class = true>, fillcolor="#4ea7e8"] ;
1 -> 2 ;
3 [label=<gini = 0.0<br/>samples = 1<br/>value = [2, 0]<br/>class = no>, fillcolor="#e58139"] ;
2 -> 3 ;
4 [label=<total_oper_revenue &le; 0.658<br/>gini = 0.123<br/>samples = 39<br/>value = [4, 57]<br/>class = true>, fillcolor="#47a4e7"] ;
2 -> 4 ;
5 [label=<gini = 0.095<br/>samples = 38<br/>value = [3, 57]<br/>class = true>, fillcolor="#43a2e6"] ;
4 -> 5 ;
6 [label=<gini = 0.0<br/>samples = 1<br/>value = [1, 0]<br/>class = no>, fillcolor="#e58139"] ;
4 -> 6 ;
7 [label=<deferred_tax &le; 0.315<br/>gini = 0.401<br/>samples = 12<br/>value = [13, 5]<br/>class = no>, fillcolor="#efb185"] ;
1 -> 7 ;
8 [label=<gini = 0.0<br/>samples = 1<br/>value = [0, 2]<br/>class = true>, fillcolor="#399de5"] ;
7 -> 8 ;
9 [label=<net_inc.dec_in_cash_and_cash_equivalents &le; 0.516<br/>gini = 0.305<br/>samples = 11<br/>value = [13, 3]<br/>class = no>, fillcolor="#eb9e67"] ;
7 -> 9 ;
10 [label=<gini = 0.0<br/>samples = 1<br/>value = [0, 2]<br/>class = true>, fillcolor="#399de5"] ;
9 -> 10 ;
11 [label=<gini = 0.133<br/>samples = 10<br/>value = [13, 1]<br/>class = no>, fillcolor="#e78b48"] ;
9 -> 11 ;
12 [label=<changeInventory &le; 0.696<br/>gini = 0.411<br/>samples = 450<br/>value = [511, 208]<br/>class = no>, fillcolor="#f0b48a"] ;
0 -> 12 [labeldistance=2.5, labelangle=-45, headlabel="False"] ;
13 [label=<deferred_tax_assets_net &le; 0.164<br/>gini = 0.368<br/>samples = 343<br/>value = [415, 133]<br/>class = no>, fillcolor="#eda978"] ;
12 -> 13 ;
14 [label=<total_reserves_and_surplus &le; 0.489<br/>gini = 0.357<br/>samples = 337<br/>value = [413, 125]<br/>class = no>, fillcolor="#eda775"] ;
13 -> 14 ;
15 [label=<gini = 0.401<br/>samples = 14<br/>value = [5, 13]<br/>class = true>, fillcolor="#85c3ef"] ;
14 -> 15 ;
16 [label=<gini = 0.338<br/>samples = 323<br/>value = [408, 112]<br/>class = no>, fillcolor="#eca46f"] ;
14 -> 16 ;
17 [label=<EPS_basic &le; 0.437<br/>gini = 0.32<br/>samples = 6<br/>value = [2, 8]<br/>class = true>, fillcolor="#6ab6ec"] ;
13 -> 17 ;
18 [label=<gini = 0.0<br/>samples = 4<br/>value = [0, 8]<br/>class = true>, fillcolor="#399de5"] ;
17 -> 18 ;
19 [label=<gini = 0.0<br/>samples = 2<br/>value = [2, 0]<br/>class = no>, fillcolor="#e58139"] ;
17 -> 19 ;
20 [label=<EAT_before_Extraordinary &le; 0.496<br/>gini = 0.492<br/>samples = 107<br/>value = [96, 75]<br/>class = no>, fillcolor="#f9e3d4"] ;
12 -> 20 ;
21 [label=<other_non.current_assets &le; 0.0<br/>gini = 0.484<br/>samples = 63<br/>value = [43, 62]<br/>class = true>, fillcolor="#c2e1f7"] ;
20 -> 21 ;
22 [label=<gini = 0.49<br/>samples = 33<br/>value = [32, 24]<br/>class = no>, fillcolor="#f8e0ce"] ;
21 -> 22 ;
23 [label=<gini = 0.348<br/>samples = 30<br/>value = [11, 38]<br/>class = true>, fillcolor="#72b9ed"] ;
21 -> 23 ;
24 [label=<total_shareholders_funds &le; 0.896<br/>gini = 0.316<br/>samples = 44<br/>value = [53, 13]<br/>class = no>, fillcolor="#eba06a"] ;
20 -> 24 ;
25 [label=<gini = 0.204<br/>samples = 36<br/>value = [46, 6]<br/>class = no>, fillcolor="#e89153"] ;
24 -> 25 ;
26 [label=<gini = 0.5<br/>samples = 8<br/>value = [7, 7]<br/>class = no>, fillcolor="#ffffff"] ;
24 -> 26 ;
}
