digraph Tree {
node [shape=box, style="filled, rounded", color="black", fontname="helvetica"] ;
edge [fontname="helvetica"] ;
0 [label=<current_tax &le; 0.155<br/>gini = 0.44<br/>samples = 522<br/>value = [539, 261]<br/>class = no>, fillcolor="#f2be99"] ;
1 [label=<total_reserves_and_surplus &le; 0.454<br/>gini = 0.497<br/>samples = 235<br/>value = [197, 170]<br/>class = no>, fillcolor="#fbeee4"] ;
0 -> 1 [labeldistance=2.5, labelangle=45, headlabel="True"] ;
2 [label=<total_non.current_assets &le; 0.231<br/>gini = 0.269<br/>samples = 32<br/>value = [8, 42]<br/>class = true>, fillcolor="#5fb0ea"] ;
1 -> 2 ;
3 [label=<gini = 0.0<br/>samples = 23<br/>value = [0, 35]<br/>class = true>, fillcolor="#399de5"] ;
2 -> 3 ;
4 [label=<depr_amort &le; 0.021<br/>gini = 0.498<br/>samples = 9<br/>value = [8, 7]<br/>class = no>, fillcolor="#fcefe6"] ;
2 -> 4 ;
5 [label=<gini = 0.346<br/>samples = 6<br/>value = [2, 7]<br/>class = true>, fillcolor="#72b9ec"] ;
4 -> 5 ;
6 [label=<gini = 0.0<br/>samples = 3<br/>value = [6, 0]<br/>class = no>, fillcolor="#e58139"] ;
4 -> 6 ;
7 [label=<earnings_continuing_operations &le; 0.483<br/>gini = 0.481<br/>samples = 203<br/>value = [189, 128]<br/>class = no>, fillcolor="#f7d6bf"] ;
1 -> 7 ;
8 [label=<tangible_assets &le; 0.922<br/>gini = 0.444<br/>samples = 52<br/>value = [26, 52]<br/>class = true>, fillcolor="#9ccef2"] ;
7 -> 8 ;
9 [label=<gini = 0.418<br/>samples = 51<br/>value = [22, 52]<br/>class = true>, fillcolor="#8dc6f0"] ;
8 -> 9 ;
10 [label=<gini = 0.0<br/>samples = 1<br/>value = [4, 0]<br/>class = no>, fillcolor="#e58139"] ;
8 -> 10 ;
11 [label=<other_expenses &le; 0.002<br/>gini = 0.434<br/>samples = 151<br/>value = [163, 76]<br/>class = no>, fillcolor="#f1bc95"] ;
7 -> 11 ;
12 [label=<gini = 0.324<br/>samples = 85<br/>value = [106, 27]<br/>class = no>, fillcolor="#eca16b"] ;
11 -> 12 ;
13 [label=<gini = 0.497<br/>samples = 66<br/>value = [57, 49]<br/>class = no>, fillcolor="#fbede3"] ;
11 -> 13 ;
14 [label=<EAT_before_Extraordinary &le; 0.404<br/>gini = 0.332<br/>samples = 287<br/>value = [342, 91]<br/>class = no>, fillcolor="#eca36e"] ;
0 -> 14 [labeldistance=2.5, labelangle=-45, headlabel="False"] ;
15 [label=<gini = 0.0<br/>samples = 4<br/>value = [0, 5]<br/>class = true>, fillcolor="#399de5"] ;
14 -> 15 ;
16 [label=<NetIncome &le; 0.528<br/>gini = 0.321<br/>samples = 283<br/>value = [342, 86]<br/>class = no>, fillcolor="#eca16b"] ;
14 -> 16 ;
17 [label=<other_current_liabilities &le; 0.047<br/>gini = 0.356<br/>samples = 232<br/>value = [278, 84]<br/>class = no>, fillcolor="#eda775"] ;
16 -> 17 ;
18 [label=<gini = 0.295<br/>samples = 178<br/>value = [233, 51]<br/>class = no>, fillcolor="#eb9d64"] ;
17 -> 18 ;
19 [label=<gini = 0.488<br/>samples = 54<br/>value = [45, 33]<br/>class = no>, fillcolor="#f8ddca"] ;
17 -> 19 ;
20 [label=<total_tax &le; 0.554<br/>gini = 0.059<br/>samples = 51<br/>value = [64, 2]<br/>class = no>, fillcolor="#e6853f"] ;
16 -> 20 ;
21 [label=<gini = 0.03<br/>samples = 50<br/>value = [64, 1]<br/>class = no>, fillcolor="#e5833c"] ;
20 -> 21 ;
22 [label=<gini = 0.0<br/>samples = 1<br/>value = [0, 1]<br/>class = true>, fillcolor="#399de5"] ;
20 -> 22 ;
}
