digraph Tree {
node [shape=box, style="filled, rounded", color="black", fontname="helvetica"] ;
edge [fontname="helvetica"] ;
0 [label=<EPS_basic &le; 0.328<br/>gini = 0.438<br/>samples = 512<br/>value = [541, 259]<br/>class = no>, fillcolor="#f1bd98"] ;
1 [label=<EAT_before_Extraordinary &le; 0.494<br/>gini = 0.467<br/>samples = 110<br/>value = [65, 110]<br/>class = true>, fillcolor="#aed7f4"] ;
0 -> 1 [labeldistance=2.5, labelangle=45, headlabel="True"] ;
2 [label=<deferred_tax &le; 0.284<br/>gini = 0.414<br/>samples = 90<br/>value = [41, 99]<br/>class = true>, fillcolor="#8bc6f0"] ;
1 -> 2 ;
3 [label=<category &le; 0.63<br/>gini = 0.444<br/>samples = 6<br/>value = [10, 5]<br/>class = no>, fillcolor="#f2c09c"] ;
2 -> 3 ;
4 [label=<gini = 0.0<br/>samples = 3<br/>value = [8, 0]<br/>class = no>, fillcolor="#e58139"] ;
3 -> 4 ;
5 [label=<gini = 0.408<br/>samples = 3<br/>value = [2, 5]<br/>class = true>, fillcolor="#88c4ef"] ;
3 -> 5 ;
6 [label=<long_term_borrowings &le; 0.0<br/>gini = 0.373<br/>samples = 84<br/>value = [31, 94]<br/>class = true>, fillcolor="#7abdee"] ;
2 -> 6 ;
7 [label=<gini = 0.111<br/>samples = 22<br/>value = [2, 32]<br/>class = true>, fillcolor="#45a3e7"] ;
6 -> 7 ;
8 [label=<gini = 0.434<br/>samples = 62<br/>value = [29, 62]<br/>class = true>, fillcolor="#96cbf1"] ;
6 -> 8 ;
9 [label=<net_cash_used_from_financing_activities &le; 0.51<br/>gini = 0.431<br/>samples = 20<br/>value = [24, 11]<br/>class = no>, fillcolor="#f1bb94"] ;
1 -> 9 ;
10 [label=<gini = 0.0<br/>samples = 4<br/>value = [0, 5]<br/>class = true>, fillcolor="#399de5"] ;
9 -> 10 ;
11 [label=<total_non.current_assets &le; 0.001<br/>gini = 0.32<br/>samples = 16<br/>value = [24, 6]<br/>class = no>, fillcolor="#eca06a"] ;
9 -> 11 ;
12 [label=<gini = 0.245<br/>samples = 4<br/>value = [1, 6]<br/>class = true>, fillcolor="#5aade9"] ;
11 -> 12 ;
13 [label=<gini = 0.0<br/>samples = 12<br/>value = [23, 0]<br/>class = no>, fillcolor="#e58139"] ;
11 -> 13 ;
14 [label=<EPS_diluted &le; 0.338<br/>gini = 0.363<br/>samples = 402<br/>value = [476, 149]<br/>class = no>, fillcolor="#eda877"] ;
0 -> 14 [labeldistance=2.5, labelangle=-45, headlabel="False"] ;
15 [label=<short_term_loans_and_advances &le; 0.118<br/>gini = 0.427<br/>samples = 249<br/>value = [275, 123]<br/>class = no>, fillcolor="#f1b992"] ;
14 -> 15 ;
16 [label=<total_revenue &le; 0.984<br/>gini = 0.391<br/>samples = 221<br/>value = [258, 94]<br/>class = no>, fillcolor="#eeaf81"] ;
15 -> 16 ;
17 [label=<gini = 0.383<br/>samples = 220<br/>value = [258, 90]<br/>class = no>, fillcolor="#eead7e"] ;
16 -> 17 ;
18 [label=<gini = 0.0<br/>samples = 1<br/>value = [0, 4]<br/>class = true>, fillcolor="#399de5"] ;
16 -> 18 ;
19 [label=<EBT &le; 0.438<br/>gini = 0.466<br/>samples = 28<br/>value = [17, 29]<br/>class = true>, fillcolor="#add6f4"] ;
15 -> 19 ;
20 [label=<gini = 0.105<br/>samples = 11<br/>value = [1, 17]<br/>class = true>, fillcolor="#45a3e7"] ;
19 -> 20 ;
21 [label=<gini = 0.49<br/>samples = 17<br/>value = [16, 12]<br/>class = no>, fillcolor="#f8e0ce"] ;
19 -> 21 ;
22 [label=<total_revenue &le; 0.327<br/>gini = 0.203<br/>samples = 153<br/>value = [201, 26]<br/>class = no>, fillcolor="#e89153"] ;
14 -> 22 ;
23 [label=<taxDividend &le; 0.0<br/>gini = 0.142<br/>samples = 121<br/>value = [168, 14]<br/>class = no>, fillcolor="#e78c49"] ;
22 -> 23 ;
24 [label=<gini = 0.339<br/>samples = 23<br/>value = [29, 8]<br/>class = no>, fillcolor="#eca470"] ;
23 -> 24 ;
25 [label=<gini = 0.079<br/>samples = 98<br/>value = [139, 6]<br/>class = no>, fillcolor="#e68642"] ;
23 -> 25 ;
26 [label=<short_term_borrowings &le; 0.039<br/>gini = 0.391<br/>samples = 32<br/>value = [33, 12]<br/>class = no>, fillcolor="#eeaf81"] ;
22 -> 26 ;
27 [label=<gini = 0.0<br/>samples = 14<br/>value = [22, 0]<br/>class = no>, fillcolor="#e58139"] ;
26 -> 27 ;
28 [label=<gini = 0.499<br/>samples = 18<br/>value = [11, 12]<br/>class = true>, fillcolor="#eff7fd"] ;
26 -> 28 ;
}
