digraph Tree {
node [shape=box, style="filled, rounded", color="black", fontname="helvetica"] ;
edge [fontname="helvetica"] ;
0 [label=<EPS_basic &le; 0.326<br/>gini = 0.419<br/>samples = 509<br/>value = [561, 239]<br/>class = no>, fillcolor="#f0b78d"] ;
1 [label=<net_cash_used_from_financing_activities &le; 0.524<br/>gini = 0.439<br/>samples = 93<br/>value = [44, 91]<br/>class = true>, fillcolor="#99ccf2"] ;
0 -> 1 [labeldistance=2.5, labelangle=45, headlabel="True"] ;
2 [label=<netIncome_beforeExceptional_tax &le; 0.423<br/>gini = 0.302<br/>samples = 63<br/>value = [15, 66]<br/>class = true>, fillcolor="#66b3eb"] ;
1 -> 2 ;
3 [label=<long_term_borrowings &le; 0.432<br/>gini = 0.071<br/>samples = 23<br/>value = [1, 26]<br/>class = true>, fillcolor="#41a1e6"] ;
2 -> 3 ;
4 [label=<gini = 0.0<br/>samples = 21<br/>value = [0, 25]<br/>class = true>, fillcolor="#399de5"] ;
3 -> 4 ;
5 [label=<gini = 0.5<br/>samples = 2<br/>value = [1, 1]<br/>class = no>, fillcolor="#ffffff"] ;
3 -> 5 ;
6 [label=<operating_direct_expenses &le; 0.029<br/>gini = 0.384<br/>samples = 40<br/>value = [14, 40]<br/>class = true>, fillcolor="#7ebfee"] ;
2 -> 6 ;
7 [label=<gini = 0.298<br/>samples = 34<br/>value = [8, 36]<br/>class = true>, fillcolor="#65b3eb"] ;
6 -> 7 ;
8 [label=<gini = 0.48<br/>samples = 6<br/>value = [6, 4]<br/>class = no>, fillcolor="#f6d5bd"] ;
6 -> 8 ;
9 [label=<financeCosts &le; 0.166<br/>gini = 0.497<br/>samples = 30<br/>value = [29, 25]<br/>class = no>, fillcolor="#fbeee4"] ;
1 -> 9 ;
10 [label=<long_term_borrowings &le; 0.0<br/>gini = 0.439<br/>samples = 23<br/>value = [29, 14]<br/>class = no>, fillcolor="#f2be99"] ;
9 -> 10 ;
11 [label=<gini = 0.0<br/>samples = 3<br/>value = [0, 5]<br/>class = true>, fillcolor="#399de5"] ;
10 -> 11 ;
12 [label=<gini = 0.361<br/>samples = 20<br/>value = [29, 9]<br/>class = no>, fillcolor="#eda876"] ;
10 -> 12 ;
13 [label=<gini = 0.0<br/>samples = 7<br/>value = [0, 11]<br/>class = true>, fillcolor="#399de5"] ;
9 -> 13 ;
14 [label=<EBT &le; 0.402<br/>gini = 0.346<br/>samples = 416<br/>value = [517, 148]<br/>class = no>, fillcolor="#eca572"] ;
0 -> 14 [labeldistance=2.5, labelangle=-45, headlabel="False"] ;
15 [label=<total_oper_revenue &le; 0.002<br/>gini = 0.32<br/>samples = 8<br/>value = [2, 8]<br/>class = true>, fillcolor="#6ab6ec"] ;
14 -> 15 ;
16 [label=<gini = 0.0<br/>samples = 2<br/>value = [2, 0]<br/>class = no>, fillcolor="#e58139"] ;
15 -> 16 ;
17 [label=<gini = 0.0<br/>samples = 6<br/>value = [0, 8]<br/>class = true>, fillcolor="#399de5"] ;
15 -> 17 ;
18 [label=<tax_earlier_years &le; 0.322<br/>gini = 0.336<br/>samples = 408<br/>value = [515, 140]<br/>class = no>, fillcolor="#eca36f"] ;
14 -> 18 ;
19 [label=<net_cash_used_from_financing_activities &le; 0.529<br/>gini = 0.314<br/>samples = 386<br/>value = [496, 120]<br/>class = no>, fillcolor="#eb9f69"] ;
18 -> 19 ;
20 [label=<gini = 0.351<br/>samples = 327<br/>value = [405, 119]<br/>class = no>, fillcolor="#eda673"] ;
19 -> 20 ;
21 [label=<gini = 0.022<br/>samples = 59<br/>value = [91, 1]<br/>class = no>, fillcolor="#e5823b"] ;
19 -> 21 ;
22 [label=<revenueNet &le; 0.165<br/>gini = 0.5<br/>samples = 22<br/>value = [19, 20]<br/>class = true>, fillcolor="#f5fafe"] ;
18 -> 22 ;
23 [label=<gini = 0.426<br/>samples = 15<br/>value = [8, 18]<br/>class = true>, fillcolor="#91c9f1"] ;
22 -> 23 ;
24 [label=<gini = 0.26<br/>samples = 7<br/>value = [11, 2]<br/>class = no>, fillcolor="#ea985d"] ;
22 -> 24 ;
}
