digraph Tree {
node [shape=box, style="filled, rounded", color="black", fontname="helvetica"] ;
edge [fontname="helvetica"] ;
0 [label=<earnings_continuing_operations &le; 0.488<br/>gini = 0.443<br/>samples = 505<br/>value = [535, 265]<br/>class = no>, fillcolor="#f2bf9b"] ;
1 [label=<changeInventory &le; 0.702<br/>gini = 0.476<br/>samples = 154<br/>value = [96, 150]<br/>class = true>, fillcolor="#b8dcf6"] ;
0 -> 1 [labeldistance=2.5, labelangle=45, headlabel="True"] ;
2 [label=<EBT &le; 0.387<br/>gini = 0.492<br/>samples = 133<br/>value = [94, 121]<br/>class = true>, fillcolor="#d3e9f9"] ;
1 -> 2 ;
3 [label=<capital_goods &le; 0.006<br/>gini = 0.337<br/>samples = 27<br/>value = [9, 33]<br/>class = true>, fillcolor="#6fb8ec"] ;
2 -> 3 ;
4 [label=<gini = 0.26<br/>samples = 26<br/>value = [6, 33]<br/>class = true>, fillcolor="#5dafea"] ;
3 -> 4 ;
5 [label=<gini = 0.0<br/>samples = 1<br/>value = [3, 0]<br/>class = no>, fillcolor="#e58139"] ;
3 -> 5 ;
6 [label=<short_term_borrowings &le; 0.0<br/>gini = 0.5<br/>samples = 106<br/>value = [85, 88]<br/>class = true>, fillcolor="#f8fcfe"] ;
2 -> 6 ;
7 [label=<gini = 0.394<br/>samples = 23<br/>value = [27, 10]<br/>class = no>, fillcolor="#efb082"] ;
6 -> 7 ;
8 [label=<gini = 0.489<br/>samples = 83<br/>value = [58, 78]<br/>class = true>, fillcolor="#cce6f8"] ;
6 -> 8 ;
9 [label=<EBT &le; 0.433<br/>gini = 0.121<br/>samples = 21<br/>value = [2, 29]<br/>class = true>, fillcolor="#47a4e7"] ;
1 -> 9 ;
10 [label=<netIncome_beforeExceptional_tax &le; 0.19<br/>gini = 0.064<br/>samples = 20<br/>value = [1, 29]<br/>class = true>, fillcolor="#40a0e6"] ;
9 -> 10 ;
11 [label=<gini = 0.5<br/>samples = 2<br/>value = [1, 1]<br/>class = no>, fillcolor="#ffffff"] ;
10 -> 11 ;
12 [label=<gini = 0.0<br/>samples = 18<br/>value = [0, 28]<br/>class = true>, fillcolor="#399de5"] ;
10 -> 12 ;
13 [label=<gini = 0.0<br/>samples = 1<br/>value = [1, 0]<br/>class = no>, fillcolor="#e58139"] ;
9 -> 13 ;
14 [label=<EPS_diluted &le; 0.33<br/>gini = 0.329<br/>samples = 351<br/>value = [439, 115]<br/>class = no>, fillcolor="#eca26d"] ;
0 -> 14 [labeldistance=2.5, labelangle=-45, headlabel="False"] ;
15 [label=<earnings_continuing_operations &le; 0.488<br/>gini = 0.18<br/>samples = 7<br/>value = [1, 9]<br/>class = true>, fillcolor="#4fa8e8"] ;
14 -> 15 ;
16 [label=<gini = 0.0<br/>samples = 1<br/>value = [1, 0]<br/>class = no>, fillcolor="#e58139"] ;
15 -> 16 ;
17 [label=<gini = 0.0<br/>samples = 6<br/>value = [0, 9]<br/>class = true>, fillcolor="#399de5"] ;
15 -> 17 ;
18 [label=<total_reserves_and_surplus &le; 0.491<br/>gini = 0.314<br/>samples = 344<br/>value = [438, 106]<br/>class = no>, fillcolor="#eb9f69"] ;
14 -> 18 ;
19 [label=<other_expenses &le; 0.002<br/>gini = 0.489<br/>samples = 35<br/>value = [35, 26]<br/>class = no>, fillcolor="#f8dfcc"] ;
18 -> 19 ;
20 [label=<gini = 0.383<br/>samples = 19<br/>value = [23, 8]<br/>class = no>, fillcolor="#eead7e"] ;
19 -> 20 ;
21 [label=<gini = 0.48<br/>samples = 16<br/>value = [12, 18]<br/>class = true>, fillcolor="#bddef6"] ;
19 -> 21 ;
22 [label=<tax_earlier_years &le; 0.324<br/>gini = 0.276<br/>samples = 309<br/>value = [403, 80]<br/>class = no>, fillcolor="#ea9a60"] ;
18 -> 22 ;
23 [label=<gini = 0.261<br/>samples = 299<br/>value = [394, 72]<br/>class = no>, fillcolor="#ea985d"] ;
22 -> 23 ;
24 [label=<gini = 0.498<br/>samples = 10<br/>value = [9, 8]<br/>class = no>, fillcolor="#fcf1e9"] ;
22 -> 24 ;
}
