digraph Tree {
node [shape=box, style="filled, rounded", color="black", fontname="helvetica"] ;
edge [fontname="helvetica"] ;
0 [label=<dividendEquity &le; 0.0<br/>gini = 0.445<br/>samples = 505<br/>value = [533, 267]<br/>class = no>, fillcolor="#f2c09c"] ;
1 [label=<EPS_diluted &le; 0.33<br/>gini = 0.483<br/>samples = 358<br/>value = [339, 233]<br/>class = no>, fillcolor="#f7d8c1"] ;
0 -> 1 [labeldistance=2.5, labelangle=45, headlabel="True"] ;
2 [label=<total_share_capital &le; 0.095<br/>gini = 0.429<br/>samples = 129<br/>value = [64, 141]<br/>class = true>, fillcolor="#93c9f1"] ;
1 -> 2 ;
3 [label=<net_cash_used_from_financing_activities &le; 0.515<br/>gini = 0.475<br/>samples = 95<br/>value = [57, 90]<br/>class = true>, fillcolor="#b6dbf5"] ;
2 -> 3 ;
4 [label=<gini = 0.236<br/>samples = 28<br/>value = [6, 38]<br/>class = true>, fillcolor="#58ace9"] ;
3 -> 4 ;
5 [label=<gini = 0.5<br/>samples = 67<br/>value = [51, 52]<br/>class = true>, fillcolor="#fbfdfe"] ;
3 -> 5 ;
6 [label=<total_shareholders_funds &le; 0.795<br/>gini = 0.212<br/>samples = 34<br/>value = [7, 51]<br/>class = true>, fillcolor="#54aae9"] ;
2 -> 6 ;
7 [label=<gini = 0.135<br/>samples = 32<br/>value = [4, 51]<br/>class = true>, fillcolor="#49a5e7"] ;
6 -> 7 ;
8 [label=<gini = 0.0<br/>samples = 2<br/>value = [3, 0]<br/>class = no>, fillcolor="#e58139"] ;
6 -> 8 ;
9 [label=<intangible_assets &le; 0.001<br/>gini = 0.376<br/>samples = 229<br/>value = [275, 92]<br/>class = no>, fillcolor="#eeab7b"] ;
1 -> 9 ;
10 [label=<net_cashflow_from_operating_activities &le; 0.513<br/>gini = 0.396<br/>samples = 199<br/>value = [235, 88]<br/>class = no>, fillcolor="#efb083"] ;
9 -> 10 ;
11 [label=<gini = 0.383<br/>samples = 193<br/>value = [233, 81]<br/>class = no>, fillcolor="#eead7e"] ;
10 -> 11 ;
12 [label=<gini = 0.346<br/>samples = 6<br/>value = [2, 7]<br/>class = true>, fillcolor="#72b9ec"] ;
10 -> 12 ;
13 [label=<short_term_provisions &le; 0.173<br/>gini = 0.165<br/>samples = 30<br/>value = [40, 4]<br/>class = no>, fillcolor="#e88e4d"] ;
9 -> 13 ;
14 [label=<gini = 0.091<br/>samples = 29<br/>value = [40, 2]<br/>class = no>, fillcolor="#e68743"] ;
13 -> 14 ;
15 [label=<gini = 0.0<br/>samples = 1<br/>value = [0, 2]<br/>class = true>, fillcolor="#399de5"] ;
13 -> 15 ;
16 [label=<total_non.current_assets &le; 0.988<br/>gini = 0.254<br/>samples = 147<br/>value = [194, 34]<br/>class = no>, fillcolor="#ea975c"] ;
0 -> 16 [labeldistance=2.5, labelangle=-45, headlabel="False"] ;
17 [label=<total_share_capital &le; 0.094<br/>gini = 0.243<br/>samples = 146<br/>value = [194, 32]<br/>class = no>, fillcolor="#e9965a"] ;
16 -> 17 ;
18 [label=<net_cash_used_in_investing_activities &le; 0.526<br/>gini = 0.195<br/>samples = 128<br/>value = [179, 22]<br/>class = no>, fillcolor="#e89051"] ;
17 -> 18 ;
19 [label=<gini = 0.115<br/>samples = 113<br/>value = [169, 11]<br/>class = no>, fillcolor="#e78946"] ;
18 -> 19 ;
20 [label=<gini = 0.499<br/>samples = 15<br/>value = [10, 11]<br/>class = true>, fillcolor="#edf6fd"] ;
18 -> 20 ;
21 [label=<taxDividend &le; 0.009<br/>gini = 0.48<br/>samples = 18<br/>value = [15, 10]<br/>class = no>, fillcolor="#f6d5bd"] ;
17 -> 21 ;
22 [label=<gini = 0.346<br/>samples = 7<br/>value = [2, 7]<br/>class = true>, fillcolor="#72b9ec"] ;
21 -> 22 ;
23 [label=<gini = 0.305<br/>samples = 11<br/>value = [13, 3]<br/>class = no>, fillcolor="#eb9e67"] ;
21 -> 23 ;
24 [label=<gini = 0.0<br/>samples = 1<br/>value = [0, 2]<br/>class = true>, fillcolor="#399de5"] ;
16 -> 24 ;
}
