digraph Tree {
node [shape=box, style="filled, rounded", color="black", fontname="helvetica"] ;
edge [fontname="helvetica"] ;
0 [label=<EPS_diluted &le; 0.326<br/>gini = 0.435<br/>samples = 505<br/>value = [544, 256]<br/>class = no>, fillcolor="#f1bc96"] ;
1 [label=<employeeBenefits &le; 0.056<br/>gini = 0.446<br/>samples = 86<br/>value = [45, 89]<br/>class = true>, fillcolor="#9dcff2"] ;
0 -> 1 [labeldistance=2.5, labelangle=45, headlabel="True"] ;
2 [label=<long_term_borrowings &le; 0.026<br/>gini = 0.484<br/>samples = 66<br/>value = [43, 62]<br/>class = true>, fillcolor="#c2e1f7"] ;
1 -> 2 ;
3 [label=<revenueGross &le; 0.079<br/>gini = 0.398<br/>samples = 39<br/>value = [17, 45]<br/>class = true>, fillcolor="#84c2ef"] ;
2 -> 3 ;
4 [label=<gini = 0.236<br/>samples = 27<br/>value = [6, 38]<br/>class = true>, fillcolor="#58ace9"] ;
3 -> 4 ;
5 [label=<gini = 0.475<br/>samples = 12<br/>value = [11, 7]<br/>class = no>, fillcolor="#f6d1b7"] ;
3 -> 5 ;
6 [label=<changeInventory &le; 0.701<br/>gini = 0.478<br/>samples = 27<br/>value = [26, 17]<br/>class = no>, fillcolor="#f6d3ba"] ;
2 -> 6 ;
7 [label=<gini = 0.401<br/>samples = 23<br/>value = [26, 10]<br/>class = no>, fillcolor="#efb185"] ;
6 -> 7 ;
8 [label=<gini = 0.0<br/>samples = 4<br/>value = [0, 7]<br/>class = true>, fillcolor="#399de5"] ;
6 -> 8 ;
9 [label=<changeInventory &le; 0.654<br/>gini = 0.128<br/>samples = 20<br/>value = [2, 27]<br/>class = true>, fillcolor="#48a4e7"] ;
1 -> 9 ;
10 [label=<gini = 0.0<br/>samples = 1<br/>value = [1, 0]<br/>class = no>, fillcolor="#e58139"] ;
9 -> 10 ;
11 [label=<total_reserves_and_surplus &le; 0.762<br/>gini = 0.069<br/>samples = 19<br/>value = [1, 27]<br/>class = true>, fillcolor="#40a1e6"] ;
9 -> 11 ;
12 [label=<gini = 0.0<br/>samples = 18<br/>value = [0, 27]<br/>class = true>, fillcolor="#399de5"] ;
11 -> 12 ;
13 [label=<gini = 0.0<br/>samples = 1<br/>value = [1, 0]<br/>class = no>, fillcolor="#e58139"] ;
11 -> 13 ;
14 [label=<long_term_loans_and_advances &le; 0.0<br/>gini = 0.376<br/>samples = 419<br/>value = [499, 167]<br/>class = no>, fillcolor="#eeab7b"] ;
0 -> 14 [labeldistance=2.5, labelangle=-45, headlabel="False"] ;
15 [label=<EBT &le; 0.432<br/>gini = 0.451<br/>samples = 131<br/>value = [136, 71]<br/>class = no>, fillcolor="#f3c3a0"] ;
14 -> 15 ;
16 [label=<total_capital_and_liabilities &le; 0.014<br/>gini = 0.47<br/>samples = 20<br/>value = [14, 23]<br/>class = true>, fillcolor="#b2d9f5"] ;
15 -> 16 ;
17 [label=<gini = 0.1<br/>samples = 8<br/>value = [1, 18]<br/>class = true>, fillcolor="#44a2e6"] ;
16 -> 17 ;
18 [label=<gini = 0.401<br/>samples = 12<br/>value = [13, 5]<br/>class = no>, fillcolor="#efb185"] ;
16 -> 18 ;
19 [label=<long_term_loans_and_advances &le; 0.0<br/>gini = 0.405<br/>samples = 111<br/>value = [122, 48]<br/>class = no>, fillcolor="#efb387"] ;
15 -> 19 ;
20 [label=<gini = 0.372<br/>samples = 104<br/>value = [119, 39]<br/>class = no>, fillcolor="#eeaa7a"] ;
19 -> 20 ;
21 [label=<gini = 0.375<br/>samples = 7<br/>value = [3, 9]<br/>class = true>, fillcolor="#7bbeee"] ;
19 -> 21 ;
22 [label=<EBT &le; 0.449<br/>gini = 0.331<br/>samples = 288<br/>value = [363, 96]<br/>class = no>, fillcolor="#eca26d"] ;
14 -> 22 ;
23 [label=<net_cash_used_from_financing_activities &le; 0.515<br/>gini = 0.385<br/>samples = 200<br/>value = [236, 83]<br/>class = no>, fillcolor="#eead7f"] ;
22 -> 23 ;
24 [label=<gini = 0.494<br/>samples = 36<br/>value = [28, 35]<br/>class = true>, fillcolor="#d7ebfa"] ;
23 -> 24 ;
25 [label=<gini = 0.305<br/>samples = 164<br/>value = [208, 48]<br/>class = no>, fillcolor="#eb9e67"] ;
23 -> 25 ;
26 [label=<less_levies &le; 0.209<br/>gini = 0.168<br/>samples = 88<br/>value = [127, 13]<br/>class = no>, fillcolor="#e88e4d"] ;
22 -> 26 ;
27 [label=<gini = 0.108<br/>samples = 77<br/>value = [115, 7]<br/>class = no>, fillcolor="#e78945"] ;
26 -> 27 ;
28 [label=<gini = 0.444<br/>samples = 11<br/>value = [12, 6]<br/>class = no>, fillcolor="#f2c09c"] ;
26 -> 28 ;
}
