digraph Tree {
node [shape=box, style="filled, rounded", color="black", fontname="helvetica"] ;
edge [fontname="helvetica"] ;
0 [label=<EAT_before_Extraordinary &le; 0.493<br/>gini = 0.453<br/>samples = 511<br/>value = [523, 277]<br/>class = no>, fillcolor="#f3c4a2"] ;
1 [label=<short_term_loans_and_advances &le; 0.147<br/>gini = 0.402<br/>samples = 101<br/>value = [47, 122]<br/>class = true>, fillcolor="#85c3ef"] ;
0 -> 1 [labeldistance=2.5, labelangle=45, headlabel="True"] ;
2 [label=<deferred_tax &le; 0.314<br/>gini = 0.454<br/>samples = 81<br/>value = [45, 84]<br/>class = true>, fillcolor="#a3d2f3"] ;
1 -> 2 ;
3 [label=<contingent_liabilities &le; 0.021<br/>gini = 0.497<br/>samples = 23<br/>value = [20, 17]<br/>class = no>, fillcolor="#fbece1"] ;
2 -> 3 ;
4 [label=<gini = 0.0<br/>samples = 7<br/>value = [11, 0]<br/>class = no>, fillcolor="#e58139"] ;
3 -> 4 ;
5 [label=<gini = 0.453<br/>samples = 16<br/>value = [9, 17]<br/>class = true>, fillcolor="#a2d1f3"] ;
3 -> 5 ;
6 [label=<EPS_diluted &le; 0.33<br/>gini = 0.396<br/>samples = 58<br/>value = [25, 67]<br/>class = true>, fillcolor="#83c2ef"] ;
2 -> 6 ;
7 [label=<gini = 0.299<br/>samples = 52<br/>value = [15, 67]<br/>class = true>, fillcolor="#65b3eb"] ;
6 -> 7 ;
8 [label=<gini = 0.0<br/>samples = 6<br/>value = [10, 0]<br/>class = no>, fillcolor="#e58139"] ;
6 -> 8 ;
9 [label=<trade_payables &le; 0.964<br/>gini = 0.095<br/>samples = 20<br/>value = [2, 38]<br/>class = true>, fillcolor="#43a2e6"] ;
1 -> 9 ;
10 [label=<gini = 0.0<br/>samples = 19<br/>value = [0, 38]<br/>class = true>, fillcolor="#399de5"] ;
9 -> 10 ;
11 [label=<gini = 0.0<br/>samples = 1<br/>value = [2, 0]<br/>class = no>, fillcolor="#e58139"] ;
9 -> 11 ;
12 [label=<total_tax &le; 0.292<br/>gini = 0.371<br/>samples = 410<br/>value = [476, 155]<br/>class = no>, fillcolor="#edaa79"] ;
0 -> 12 [labeldistance=2.5, labelangle=-45, headlabel="False"] ;
13 [label=<other_current_assets &le; 0.0<br/>gini = 0.446<br/>samples = 198<br/>value = [200, 101]<br/>class = no>, fillcolor="#f2c19d"] ;
12 -> 13 ;
14 [label=<short_term_borrowings &le; 0.0<br/>gini = 0.393<br/>samples = 149<br/>value = [169, 62]<br/>class = no>, fillcolor="#efaf82"] ;
13 -> 14 ;
15 [label=<gini = 0.274<br/>samples = 73<br/>value = [92, 18]<br/>class = no>, fillcolor="#ea9a60"] ;
14 -> 15 ;
16 [label=<gini = 0.463<br/>samples = 76<br/>value = [77, 44]<br/>class = no>, fillcolor="#f4c9aa"] ;
14 -> 16 ;
17 [label=<EAT_before_Extraordinary &le; 0.495<br/>gini = 0.493<br/>samples = 49<br/>value = [31, 39]<br/>class = true>, fillcolor="#d6ebfa"] ;
13 -> 17 ;
18 [label=<gini = 0.0<br/>samples = 4<br/>value = [6, 0]<br/>class = no>, fillcolor="#e58139"] ;
17 -> 18 ;
19 [label=<gini = 0.476<br/>samples = 45<br/>value = [25, 39]<br/>class = true>, fillcolor="#b8dcf6"] ;
17 -> 19 ;
20 [label=<total_assets &le; 0.809<br/>gini = 0.274<br/>samples = 212<br/>value = [276, 54]<br/>class = no>, fillcolor="#ea9a60"] ;
12 -> 20 ;
21 [label=<depr_amort &le; 0.471<br/>gini = 0.254<br/>samples = 205<br/>value = [273, 48]<br/>class = no>, fillcolor="#ea975c"] ;
20 -> 21 ;
22 [label=<gini = 0.239<br/>samples = 203<br/>value = [273, 44]<br/>class = no>, fillcolor="#e99559"] ;
21 -> 22 ;
23 [label=<gini = 0.0<br/>samples = 2<br/>value = [0, 4]<br/>class = true>, fillcolor="#399de5"] ;
21 -> 23 ;
24 [label=<other_expenses &le; 0.016<br/>gini = 0.444<br/>samples = 7<br/>value = [3, 6]<br/>class = true>, fillcolor="#9ccef2"] ;
20 -> 24 ;
25 [label=<gini = 0.0<br/>samples = 3<br/>value = [0, 5]<br/>class = true>, fillcolor="#399de5"] ;
24 -> 25 ;
26 [label=<gini = 0.375<br/>samples = 4<br/>value = [3, 1]<br/>class = no>, fillcolor="#eeab7b"] ;
24 -> 26 ;
}
