digraph Tree {
node [shape=box, style="filled, rounded", color="black", fontname="helvetica"] ;
edge [fontname="helvetica"] ;
0 [label=<earnings_continuing_operations &le; 0.487<br/>gini = 0.455<br/>samples = 500<br/>value = [520, 280]<br/>class = no>, fillcolor="#f3c5a4"] ;
1 [label=<total_reserves_and_surplus &le; 0.493<br/>gini = 0.443<br/>samples = 103<br/>value = [56, 113]<br/>class = true>, fillcolor="#9bcef2"] ;
0 -> 1 [labeldistance=2.5, labelangle=45, headlabel="True"] ;
2 [label=<net_cash_used_from_financing_activities &le; 0.524<br/>gini = 0.259<br/>samples = 50<br/>value = [13, 72]<br/>class = true>, fillcolor="#5dafea"] ;
1 -> 2 ;
3 [label=<EPS_diluted &le; 0.33<br/>gini = 0.07<br/>samples = 32<br/>value = [2, 53]<br/>class = true>, fillcolor="#40a1e6"] ;
2 -> 3 ;
4 [label=<gini = 0.038<br/>samples = 30<br/>value = [1, 51]<br/>class = true>, fillcolor="#3d9fe6"] ;
3 -> 4 ;
5 [label=<gini = 0.444<br/>samples = 2<br/>value = [1, 2]<br/>class = true>, fillcolor="#9ccef2"] ;
3 -> 5 ;
6 [label=<total_non.current_liabilities &le; 0.105<br/>gini = 0.464<br/>samples = 18<br/>value = [11, 19]<br/>class = true>, fillcolor="#acd6f4"] ;
2 -> 6 ;
7 [label=<gini = 0.117<br/>samples = 11<br/>value = [1, 15]<br/>class = true>, fillcolor="#46a4e7"] ;
6 -> 7 ;
8 [label=<gini = 0.408<br/>samples = 7<br/>value = [10, 4]<br/>class = no>, fillcolor="#efb388"] ;
6 -> 8 ;
9 [label=<total_reserves_and_surplus &le; 0.498<br/>gini = 0.5<br/>samples = 53<br/>value = [43, 41]<br/>class = no>, fillcolor="#fef9f6"] ;
1 -> 9 ;
10 [label=<gini = 0.0<br/>samples = 5<br/>value = [11, 0]<br/>class = no>, fillcolor="#e58139"] ;
9 -> 10 ;
11 [label=<other_long_term_liabilities &le; 0.002<br/>gini = 0.492<br/>samples = 48<br/>value = [32, 41]<br/>class = true>, fillcolor="#d4e9f9"] ;
9 -> 11 ;
12 [label=<gini = 0.485<br/>samples = 26<br/>value = [24, 17]<br/>class = no>, fillcolor="#f7dac5"] ;
11 -> 12 ;
13 [label=<gini = 0.375<br/>samples = 22<br/>value = [8, 24]<br/>class = true>, fillcolor="#7bbeee"] ;
11 -> 13 ;
14 [label=<EPS_diluted &le; 0.326<br/>gini = 0.389<br/>samples = 397<br/>value = [464, 167]<br/>class = no>, fillcolor="#eeae80"] ;
0 -> 14 [labeldistance=2.5, labelangle=-45, headlabel="False"] ;
15 [label=<employeeBenefits &le; 0.008<br/>gini = 0.346<br/>samples = 13<br/>value = [4, 14]<br/>class = true>, fillcolor="#72b9ec"] ;
14 -> 15 ;
16 [label=<fixed_assets &le; 0.001<br/>gini = 0.494<br/>samples = 8<br/>value = [4, 5]<br/>class = true>, fillcolor="#d7ebfa"] ;
15 -> 16 ;
17 [label=<gini = 0.0<br/>samples = 4<br/>value = [0, 4]<br/>class = true>, fillcolor="#399de5"] ;
16 -> 17 ;
18 [label=<gini = 0.32<br/>samples = 4<br/>value = [4, 1]<br/>class = no>, fillcolor="#eca06a"] ;
16 -> 18 ;
19 [label=<gini = 0.0<br/>samples = 5<br/>value = [0, 9]<br/>class = true>, fillcolor="#399de5"] ;
15 -> 19 ;
20 [label=<long_term_borrowings &le; 0.021<br/>gini = 0.375<br/>samples = 384<br/>value = [460, 153]<br/>class = no>, fillcolor="#eeab7b"] ;
14 -> 20 ;
21 [label=<net_inc.dec_in_cash_and_cash_equivalents &le; 0.516<br/>gini = 0.308<br/>samples = 267<br/>value = [341, 80]<br/>class = no>, fillcolor="#eb9f67"] ;
20 -> 21 ;
22 [label=<gini = 0.466<br/>samples = 55<br/>value = [53, 31]<br/>class = no>, fillcolor="#f4cbad"] ;
21 -> 22 ;
23 [label=<gini = 0.249<br/>samples = 212<br/>value = [288, 49]<br/>class = no>, fillcolor="#e9965b"] ;
21 -> 23 ;
24 [label=<total_non.current_liabilities &le; 0.084<br/>gini = 0.471<br/>samples = 117<br/>value = [119, 73]<br/>class = no>, fillcolor="#f5ceb2"] ;
20 -> 24 ;
25 [label=<gini = 0.454<br/>samples = 39<br/>value = [23, 43]<br/>class = true>, fillcolor="#a3d1f3"] ;
24 -> 25 ;
26 [label=<gini = 0.363<br/>samples = 78<br/>value = [96, 30]<br/>class = no>, fillcolor="#eda877"] ;
24 -> 26 ;
}
