digraph Tree {
node [shape=box, style="filled, rounded", color="black", fontname="helvetica"] ;
edge [fontname="helvetica"] ;
0 [label=<EPS_basic &le; 0.33<br/>gini = 0.47<br/>samples = 494<br/>value = [498, 302]<br/>class = no>, fillcolor="#f5cdb1"] ;
1 [label=<other_expenses &le; 0.0<br/>gini = 0.412<br/>samples = 136<br/>value = [62, 152]<br/>class = true>, fillcolor="#8ac5f0"] ;
0 -> 1 [labeldistance=2.5, labelangle=45, headlabel="True"] ;
2 [label=<short_term_loans_and_advances &le; 0.0<br/>gini = 0.32<br/>samples = 7<br/>value = [8, 2]<br/>class = no>, fillcolor="#eca06a"] ;
1 -> 2 ;
3 [label=<total_tax &le; 0.292<br/>gini = 0.444<br/>samples = 3<br/>value = [1, 2]<br/>class = true>, fillcolor="#9ccef2"] ;
2 -> 3 ;
4 [label=<gini = 0.0<br/>samples = 2<br/>value = [0, 2]<br/>class = true>, fillcolor="#399de5"] ;
3 -> 4 ;
5 [label=<gini = 0.0<br/>samples = 1<br/>value = [1, 0]<br/>class = no>, fillcolor="#e58139"] ;
3 -> 5 ;
6 [label=<gini = 0.0<br/>samples = 4<br/>value = [7, 0]<br/>class = no>, fillcolor="#e58139"] ;
2 -> 6 ;
7 [label=<EPS_diluted &le; 0.312<br/>gini = 0.389<br/>samples = 129<br/>value = [54, 150]<br/>class = true>, fillcolor="#80c0ee"] ;
1 -> 7 ;
8 [label=<cash_and_equivalents_year_begin &le; 0.33<br/>gini = 0.186<br/>samples = 47<br/>value = [8, 69]<br/>class = true>, fillcolor="#50a8e8"] ;
7 -> 8 ;
9 [label=<gini = 0.167<br/>samples = 46<br/>value = [7, 69]<br/>class = true>, fillcolor="#4da7e8"] ;
8 -> 9 ;
10 [label=<gini = 0.0<br/>samples = 1<br/>value = [1, 0]<br/>class = no>, fillcolor="#e58139"] ;
8 -> 10 ;
11 [label=<changeInventory &le; 0.691<br/>gini = 0.462<br/>samples = 82<br/>value = [46, 81]<br/>class = true>, fillcolor="#a9d5f4"] ;
7 -> 11 ;
12 [label=<gini = 0.198<br/>samples = 7<br/>value = [8, 1]<br/>class = no>, fillcolor="#e89152"] ;
11 -> 12 ;
13 [label=<gini = 0.437<br/>samples = 75<br/>value = [38, 80]<br/>class = true>, fillcolor="#97ccf1"] ;
11 -> 13 ;
14 [label=<depr_amort &le; 0.545<br/>gini = 0.381<br/>samples = 358<br/>value = [436, 150]<br/>class = no>, fillcolor="#eeac7d"] ;
0 -> 14 [labeldistance=2.5, labelangle=-45, headlabel="False"] ;
15 [label=<dividendEquity &le; 0.0<br/>gini = 0.369<br/>samples = 353<br/>value = [436, 141]<br/>class = no>, fillcolor="#edaa79"] ;
14 -> 15 ;
16 [label=<depr_amort &le; 0.013<br/>gini = 0.443<br/>samples = 198<br/>value = [210, 104]<br/>class = no>, fillcolor="#f2bf9b"] ;
15 -> 16 ;
17 [label=<gini = 0.419<br/>samples = 177<br/>value = [195, 83]<br/>class = no>, fillcolor="#f0b78d"] ;
16 -> 17 ;
18 [label=<gini = 0.486<br/>samples = 21<br/>value = [15, 21]<br/>class = true>, fillcolor="#c6e3f8"] ;
16 -> 18 ;
19 [label=<exceptionalItems &le; 0.477<br/>gini = 0.242<br/>samples = 155<br/>value = [226, 37]<br/>class = no>, fillcolor="#e99659"] ;
15 -> 19 ;
20 [label=<gini = 0.469<br/>samples = 4<br/>value = [3, 5]<br/>class = true>, fillcolor="#b0d8f5"] ;
19 -> 20 ;
21 [label=<gini = 0.219<br/>samples = 151<br/>value = [223, 32]<br/>class = no>, fillcolor="#e99355"] ;
19 -> 21 ;
22 [label=<gini = 0.0<br/>samples = 5<br/>value = [0, 9]<br/>class = true>, fillcolor="#399de5"] ;
14 -> 22 ;
}
