digraph Tree {
node [shape=box, style="filled, rounded", color="black", fontname="helvetica"] ;
edge [fontname="helvetica"] ;
0 [label=<taxDividend &le; 0.0<br/>gini = 0.465<br/>samples = 524<br/>value = [506, 294]<br/>class = no>, fillcolor="#f4caac"] ;
1 [label=<other_current_liabilities &le; 0.25<br/>gini = 0.496<br/>samples = 365<br/>value = [306, 253]<br/>class = no>, fillcolor="#fae9dd"] ;
0 -> 1 [labeldistance=2.5, labelangle=45, headlabel="True"] ;
2 [label=<EPS_diluted &le; 0.328<br/>gini = 0.485<br/>samples = 332<br/>value = [299, 210]<br/>class = no>, fillcolor="#f7d9c4"] ;
1 -> 2 ;
3 [label=<changeInventory &le; 0.687<br/>gini = 0.402<br/>samples = 91<br/>value = [36, 93]<br/>class = true>, fillcolor="#86c3ef"] ;
2 -> 3 ;
4 [label=<gini = 0.245<br/>samples = 5<br/>value = [6, 1]<br/>class = no>, fillcolor="#e9965a"] ;
3 -> 4 ;
5 [label=<gini = 0.371<br/>samples = 86<br/>value = [30, 92]<br/>class = true>, fillcolor="#7abded"] ;
3 -> 5 ;
6 [label=<net_cashflow_from_operating_activities &le; 0.493<br/>gini = 0.426<br/>samples = 241<br/>value = [263, 117]<br/>class = no>, fillcolor="#f1b991"] ;
2 -> 6 ;
7 [label=<gini = 0.399<br/>samples = 221<br/>value = [247, 94]<br/>class = no>, fillcolor="#efb184"] ;
6 -> 7 ;
8 [label=<gini = 0.484<br/>samples = 20<br/>value = [16, 23]<br/>class = true>, fillcolor="#c3e1f7"] ;
6 -> 8 ;
9 [label=<company &le; 0.244<br/>gini = 0.241<br/>samples = 33<br/>value = [7, 43]<br/>class = true>, fillcolor="#59ade9"] ;
1 -> 9 ;
10 [label=<gini = 0.0<br/>samples = 3<br/>value = [4, 0]<br/>class = no>, fillcolor="#e58139"] ;
9 -> 10 ;
11 [label=<other_current_assets &le; 0.647<br/>gini = 0.122<br/>samples = 30<br/>value = [3, 43]<br/>class = true>, fillcolor="#47a4e7"] ;
9 -> 11 ;
12 [label=<gini = 0.085<br/>samples = 29<br/>value = [2, 43]<br/>class = true>, fillcolor="#42a2e6"] ;
11 -> 12 ;
13 [label=<gini = 0.0<br/>samples = 1<br/>value = [1, 0]<br/>class = no>, fillcolor="#e58139"] ;
11 -> 13 ;
14 [label=<fixed_assets &le; 0.879<br/>gini = 0.282<br/>samples = 159<br/>value = [200, 41]<br/>class = no>, fillcolor="#ea9b62"] ;
0 -> 14 [labeldistance=2.5, labelangle=-45, headlabel="False"] ;
15 [label=<total_revenue &le; 0.326<br/>gini = 0.239<br/>samples = 155<br/>value = [199, 32]<br/>class = no>, fillcolor="#e99559"] ;
14 -> 15 ;
16 [label=<other_current_assets &le; 0.812<br/>gini = 0.097<br/>samples = 110<br/>value = [148, 8]<br/>class = no>, fillcolor="#e68844"] ;
15 -> 16 ;
17 [label=<gini = 0.087<br/>samples = 108<br/>value = [147, 7]<br/>class = no>, fillcolor="#e68742"] ;
16 -> 17 ;
18 [label=<gini = 0.5<br/>samples = 2<br/>value = [1, 1]<br/>class = no>, fillcolor="#ffffff"] ;
16 -> 18 ;
19 [label=<EBT &le; 0.46<br/>gini = 0.435<br/>samples = 45<br/>value = [51, 24]<br/>class = no>, fillcolor="#f1bc96"] ;
15 -> 19 ;
20 [label=<gini = 0.497<br/>samples = 23<br/>value = [18, 21]<br/>class = true>, fillcolor="#e3f1fb"] ;
19 -> 20 ;
21 [label=<gini = 0.153<br/>samples = 22<br/>value = [33, 3]<br/>class = no>, fillcolor="#e78c4b"] ;
19 -> 21 ;
22 [label=<capital_work.in.progress &le; 0.207<br/>gini = 0.18<br/>samples = 4<br/>value = [1, 9]<br/>class = true>, fillcolor="#4fa8e8"] ;
14 -> 22 ;
23 [label=<gini = 0.0<br/>samples = 3<br/>value = [0, 9]<br/>class = true>, fillcolor="#399de5"] ;
22 -> 23 ;
24 [label=<gini = 0.0<br/>samples = 1<br/>value = [1, 0]<br/>class = no>, fillcolor="#e58139"] ;
22 -> 24 ;
}
