digraph Tree {
node [shape=box, style="filled, rounded", color="black", fontname="helvetica"] ;
edge [fontname="helvetica"] ;
0 [label=<EPS_basic &le; 0.33<br/>gini = 0.448<br/>samples = 506<br/>value = [529, 271]<br/>class = no>, fillcolor="#f2c29e"] ;
1 [label=<other_non.current_assets &le; 0.059<br/>gini = 0.486<br/>samples = 140<br/>value = [92, 129]<br/>class = true>, fillcolor="#c6e3f8"] ;
0 -> 1 [labeldistance=2.5, labelangle=45, headlabel="True"] ;
2 [label=<net_cash_used_in_investing_activities &le; 0.526<br/>gini = 0.496<br/>samples = 130<br/>value = [92, 110]<br/>class = true>, fillcolor="#dfeffb"] ;
1 -> 2 ;
3 [label=<operating_direct_expenses &le; 0.337<br/>gini = 0.467<br/>samples = 54<br/>value = [54, 32]<br/>class = no>, fillcolor="#f4ccae"] ;
2 -> 3 ;
4 [label=<gini = 0.439<br/>samples = 52<br/>value = [54, 26]<br/>class = no>, fillcolor="#f2be98"] ;
3 -> 4 ;
5 [label=<gini = 0.0<br/>samples = 2<br/>value = [0, 6]<br/>class = true>, fillcolor="#399de5"] ;
3 -> 5 ;
6 [label=<netIncome_beforeExceptional_tax &le; 0.445<br/>gini = 0.441<br/>samples = 76<br/>value = [38, 78]<br/>class = true>, fillcolor="#99cdf2"] ;
2 -> 6 ;
7 [label=<gini = 0.265<br/>samples = 35<br/>value = [8, 43]<br/>class = true>, fillcolor="#5eafea"] ;
6 -> 7 ;
8 [label=<gini = 0.497<br/>samples = 41<br/>value = [30, 35]<br/>class = true>, fillcolor="#e3f1fb"] ;
6 -> 8 ;
9 [label=<gini = 0.0<br/>samples = 10<br/>value = [0, 19]<br/>class = true>, fillcolor="#399de5"] ;
1 -> 9 ;
10 [label=<deferred_tax &le; 0.315<br/>gini = 0.37<br/>samples = 366<br/>value = [437, 142]<br/>class = no>, fillcolor="#edaa79"] ;
0 -> 10 [labeldistance=2.5, labelangle=-45, headlabel="False"] ;
11 [label=<dividendEquity &le; 0.005<br/>gini = 0.426<br/>samples = 230<br/>value = [264, 117]<br/>class = no>, fillcolor="#f1b991"] ;
10 -> 11 ;
12 [label=<net_cash_used_from_financing_activities &le; 0.505<br/>gini = 0.45<br/>samples = 197<br/>value = [218, 113]<br/>class = no>, fillcolor="#f2c2a0"] ;
11 -> 12 ;
13 [label=<gini = 0.393<br/>samples = 14<br/>value = [7, 19]<br/>class = true>, fillcolor="#82c1ef"] ;
12 -> 13 ;
14 [label=<gini = 0.426<br/>samples = 183<br/>value = [211, 94]<br/>class = no>, fillcolor="#f1b991"] ;
12 -> 14 ;
15 [label=<expenditure_in_foreign_currency &le; 0.141<br/>gini = 0.147<br/>samples = 33<br/>value = [46, 4]<br/>class = no>, fillcolor="#e78c4a"] ;
11 -> 15 ;
16 [label=<gini = 0.085<br/>samples = 30<br/>value = [43, 2]<br/>class = no>, fillcolor="#e68742"] ;
15 -> 16 ;
17 [label=<gini = 0.48<br/>samples = 3<br/>value = [3, 2]<br/>class = no>, fillcolor="#f6d5bd"] ;
15 -> 17 ;
18 [label=<dividendEquity &le; 0.004<br/>gini = 0.221<br/>samples = 136<br/>value = [173, 25]<br/>class = no>, fillcolor="#e99356"] ;
10 -> 18 ;
19 [label=<EAT_before_Extraordinary &le; 0.54<br/>gini = 0.298<br/>samples = 88<br/>value = [108, 24]<br/>class = no>, fillcolor="#eb9d65"] ;
18 -> 19 ;
20 [label=<gini = 0.264<br/>samples = 86<br/>value = [108, 20]<br/>class = no>, fillcolor="#ea985e"] ;
19 -> 20 ;
21 [label=<gini = 0.0<br/>samples = 2<br/>value = [0, 4]<br/>class = true>, fillcolor="#399de5"] ;
19 -> 21 ;
22 [label=<taxDividend &le; 0.171<br/>gini = 0.03<br/>samples = 48<br/>value = [65, 1]<br/>class = no>, fillcolor="#e5833c"] ;
18 -> 22 ;
23 [label=<gini = 0.0<br/>samples = 45<br/>value = [62, 0]<br/>class = no>, fillcolor="#e58139"] ;
22 -> 23 ;
24 [label=<gini = 0.375<br/>samples = 3<br/>value = [3, 1]<br/>class = no>, fillcolor="#eeab7b"] ;
22 -> 24 ;
}
