digraph Tree {
node [shape=box, style="filled, rounded", color="black", fontname="helvetica"] ;
edge [fontname="helvetica"] ;
0 [label=<earnings_continuing_operations &le; 0.487<br/>gini = 0.446<br/>samples = 511<br/>value = [531, 269]<br/>class = no>, fillcolor="#f2c19d"] ;
1 [label=<net_cash_used_in_investing_activities &le; 0.526<br/>gini = 0.442<br/>samples = 110<br/>value = [51, 104]<br/>class = true>, fillcolor="#9acdf2"] ;
0 -> 1 [labeldistance=2.5, labelangle=45, headlabel="True"] ;
2 [label=<EBT &le; 0.328<br/>gini = 0.499<br/>samples = 48<br/>value = [35, 38]<br/>class = true>, fillcolor="#eff7fd"] ;
1 -> 2 ;
3 [label=<cash_and_cash_equivalents &le; 0.018<br/>gini = 0.245<br/>samples = 12<br/>value = [3, 18]<br/>class = true>, fillcolor="#5aade9"] ;
2 -> 3 ;
4 [label=<gini = 0.375<br/>samples = 4<br/>value = [3, 1]<br/>class = no>, fillcolor="#eeab7b"] ;
3 -> 4 ;
5 [label=<gini = 0.0<br/>samples = 8<br/>value = [0, 17]<br/>class = true>, fillcolor="#399de5"] ;
3 -> 5 ;
6 [label=<revenueGross &le; 0.077<br/>gini = 0.473<br/>samples = 36<br/>value = [32, 20]<br/>class = no>, fillcolor="#f5d0b5"] ;
2 -> 6 ;
7 [label=<gini = 0.293<br/>samples = 18<br/>value = [23, 5]<br/>class = no>, fillcolor="#eb9c64"] ;
6 -> 7 ;
8 [label=<gini = 0.469<br/>samples = 18<br/>value = [9, 15]<br/>class = true>, fillcolor="#b0d8f5"] ;
6 -> 8 ;
9 [label=<cash_and_equivalents_year_end &le; 0.439<br/>gini = 0.314<br/>samples = 62<br/>value = [16, 66]<br/>class = true>, fillcolor="#69b5eb"] ;
1 -> 9 ;
10 [label=<short_term_provisions &le; 0.0<br/>gini = 0.26<br/>samples = 59<br/>value = [12, 66]<br/>class = true>, fillcolor="#5dafea"] ;
9 -> 10 ;
11 [label=<gini = 0.459<br/>samples = 21<br/>value = [10, 18]<br/>class = true>, fillcolor="#a7d3f3"] ;
10 -> 11 ;
12 [label=<gini = 0.077<br/>samples = 38<br/>value = [2, 48]<br/>class = true>, fillcolor="#41a1e6"] ;
10 -> 12 ;
13 [label=<gini = 0.0<br/>samples = 3<br/>value = [4, 0]<br/>class = no>, fillcolor="#e58139"] ;
9 -> 13 ;
14 [label=<EPS_basic &le; 0.338<br/>gini = 0.381<br/>samples = 401<br/>value = [480, 165]<br/>class = no>, fillcolor="#eeac7d"] ;
0 -> 14 [labeldistance=2.5, labelangle=-45, headlabel="False"] ;
15 [label=<short_term_provisions &le; 0.03<br/>gini = 0.431<br/>samples = 256<br/>value = [294, 135]<br/>class = no>, fillcolor="#f1bb94"] ;
14 -> 15 ;
16 [label=<expenditure_in_foreign_currency &le; 0.002<br/>gini = 0.399<br/>samples = 237<br/>value = [289, 110]<br/>class = no>, fillcolor="#efb184"] ;
15 -> 16 ;
17 [label=<gini = 0.422<br/>samples = 213<br/>value = [252, 109]<br/>class = no>, fillcolor="#f0b88f"] ;
16 -> 17 ;
18 [label=<gini = 0.051<br/>samples = 24<br/>value = [37, 1]<br/>class = no>, fillcolor="#e6843e"] ;
16 -> 18 ;
19 [label=<EAT_before_Extraordinary &le; 0.547<br/>gini = 0.278<br/>samples = 19<br/>value = [5, 25]<br/>class = true>, fillcolor="#61b1ea"] ;
15 -> 19 ;
20 [label=<gini = 0.077<br/>samples = 15<br/>value = [1, 24]<br/>class = true>, fillcolor="#41a1e6"] ;
19 -> 20 ;
21 [label=<gini = 0.32<br/>samples = 4<br/>value = [4, 1]<br/>class = no>, fillcolor="#eca06a"] ;
19 -> 21 ;
22 [label=<earnings_continuing_operations &le; 0.863<br/>gini = 0.239<br/>samples = 145<br/>value = [186, 30]<br/>class = no>, fillcolor="#e99559"] ;
14 -> 22 ;
23 [label=<total_current_assets &le; 0.945<br/>gini = 0.217<br/>samples = 142<br/>value = [184, 26]<br/>class = no>, fillcolor="#e99355"] ;
22 -> 23 ;
24 [label=<gini = 0.198<br/>samples = 140<br/>value = [184, 23]<br/>class = no>, fillcolor="#e89152"] ;
23 -> 24 ;
25 [label=<gini = 0.0<br/>samples = 2<br/>value = [0, 3]<br/>class = true>, fillcolor="#399de5"] ;
23 -> 25 ;
26 [label=<employeeBenefits &le; 0.347<br/>gini = 0.444<br/>samples = 3<br/>value = [2, 4]<br/>class = true>, fillcolor="#9ccef2"] ;
22 -> 26 ;
27 [label=<gini = 0.0<br/>samples = 2<br/>value = [0, 4]<br/>class = true>, fillcolor="#399de5"] ;
26 -> 27 ;
28 [label=<gini = 0.0<br/>samples = 1<br/>value = [2, 0]<br/>class = no>, fillcolor="#e58139"] ;
26 -> 28 ;
}
