digraph Tree {
node [shape=box, style="filled, rounded", color="black", fontname="helvetica"] ;
edge [fontname="helvetica"] ;
0 [label=<NetIncome &le; 0.479<br/>gini = 0.439<br/>samples = 514<br/>value = [540, 260]<br/>class = no>, fillcolor="#f2be98"] ;
1 [label=<total_shareholders_funds &le; 0.537<br/>gini = 0.386<br/>samples = 66<br/>value = [29, 82]<br/>class = true>, fillcolor="#7fc0ee"] ;
0 -> 1 [labeldistance=2.5, labelangle=45, headlabel="True"] ;
2 [label=<net_cashflow_from_operating_activities &le; 0.659<br/>gini = 0.234<br/>samples = 44<br/>value = [10, 64]<br/>class = true>, fillcolor="#58ace9"] ;
1 -> 2 ;
3 [label=<total_reserves_and_surplus &le; 0.753<br/>gini = 0.182<br/>samples = 41<br/>value = [7, 62]<br/>class = true>, fillcolor="#4fa8e8"] ;
2 -> 3 ;
4 [label=<gini = 0.138<br/>samples = 40<br/>value = [5, 62]<br/>class = true>, fillcolor="#49a5e7"] ;
3 -> 4 ;
5 [label=<gini = 0.0<br/>samples = 1<br/>value = [2, 0]<br/>class = no>, fillcolor="#e58139"] ;
3 -> 5 ;
6 [label=<total_shareholders_funds &le; 0.251<br/>gini = 0.48<br/>samples = 3<br/>value = [3, 2]<br/>class = no>, fillcolor="#f6d5bd"] ;
2 -> 6 ;
7 [label=<gini = 0.0<br/>samples = 1<br/>value = [0, 2]<br/>class = true>, fillcolor="#399de5"] ;
6 -> 7 ;
8 [label=<gini = 0.0<br/>samples = 2<br/>value = [3, 0]<br/>class = no>, fillcolor="#e58139"] ;
6 -> 8 ;
9 [label=<less_levies &le; 0.062<br/>gini = 0.5<br/>samples = 22<br/>value = [19, 18]<br/>class = no>, fillcolor="#fef8f5"] ;
1 -> 9 ;
10 [label=<cash_and_cash_equivalents &le; 0.043<br/>gini = 0.475<br/>samples = 18<br/>value = [19, 12]<br/>class = no>, fillcolor="#f5d1b6"] ;
9 -> 10 ;
11 [label=<gini = 0.393<br/>samples = 15<br/>value = [19, 7]<br/>class = no>, fillcolor="#efaf82"] ;
10 -> 11 ;
12 [label=<gini = 0.0<br/>samples = 3<br/>value = [0, 5]<br/>class = true>, fillcolor="#399de5"] ;
10 -> 12 ;
13 [label=<gini = 0.0<br/>samples = 4<br/>value = [0, 6]<br/>class = true>, fillcolor="#399de5"] ;
9 -> 13 ;
14 [label=<current_tax &le; 0.155<br/>gini = 0.383<br/>samples = 448<br/>value = [511, 178]<br/>class = no>, fillcolor="#eead7e"] ;
0 -> 14 [labeldistance=2.5, labelangle=-45, headlabel="False"] ;
15 [label=<contingent_liabilities &le; 0.003<br/>gini = 0.467<br/>samples = 167<br/>value = [157, 93]<br/>class = no>, fillcolor="#f4ccae"] ;
14 -> 15 ;
16 [label=<capital_work.in.progress &le; 0.023<br/>gini = 0.392<br/>samples = 102<br/>value = [115, 42]<br/>class = no>, fillcolor="#eeaf81"] ;
15 -> 16 ;
17 [label=<gini = 0.328<br/>samples = 82<br/>value = [100, 26]<br/>class = no>, fillcolor="#eca26c"] ;
16 -> 17 ;
18 [label=<gini = 0.499<br/>samples = 20<br/>value = [15, 16]<br/>class = true>, fillcolor="#f3f9fd"] ;
16 -> 18 ;
19 [label=<net_inc.dec_in_cash_and_cash_equivalents &le; 0.517<br/>gini = 0.495<br/>samples = 65<br/>value = [42, 51]<br/>class = true>, fillcolor="#dceefa"] ;
15 -> 19 ;
20 [label=<gini = 0.436<br/>samples = 34<br/>value = [17, 36]<br/>class = true>, fillcolor="#96cbf1"] ;
19 -> 20 ;
21 [label=<gini = 0.469<br/>samples = 31<br/>value = [25, 15]<br/>class = no>, fillcolor="#f5cdb0"] ;
19 -> 21 ;
22 [label=<cogs &le; 0.541<br/>gini = 0.312<br/>samples = 281<br/>value = [354, 85]<br/>class = no>, fillcolor="#eb9f69"] ;
14 -> 22 ;
23 [label=<netIncome_beforeExceptional_tax &le; 0.454<br/>gini = 0.286<br/>samples = 260<br/>value = [335, 70]<br/>class = no>, fillcolor="#ea9b62"] ;
22 -> 23 ;
24 [label=<gini = 0.415<br/>samples = 60<br/>value = [65, 27]<br/>class = no>, fillcolor="#f0b58b"] ;
23 -> 24 ;
25 [label=<gini = 0.237<br/>samples = 200<br/>value = [270, 43]<br/>class = no>, fillcolor="#e99559"] ;
23 -> 25 ;
26 [label=<long_term_provisions &le; 0.006<br/>gini = 0.493<br/>samples = 21<br/>value = [19, 15]<br/>class = no>, fillcolor="#fae4d5"] ;
22 -> 26 ;
27 [label=<gini = 0.469<br/>samples = 14<br/>value = [9, 15]<br/>class = true>, fillcolor="#b0d8f5"] ;
26 -> 27 ;
28 [label=<gini = 0.0<br/>samples = 7<br/>value = [10, 0]<br/>class = no>, fillcolor="#e58139"] ;
26 -> 28 ;
}
