digraph Tree {
node [shape=box, style="filled, rounded", color="black", fontname="helvetica"] ;
edge [fontname="helvetica"] ;
0 [label=<NetIncome &le; 0.488<br/>gini = 0.46<br/>samples = 518<br/>value = [513, 287]<br/>class = no>, fillcolor="#f4c7a8"] ;
1 [label=<NetIncome &le; 0.476<br/>gini = 0.475<br/>samples = 151<br/>value = [94, 148]<br/>class = true>, fillcolor="#b7dbf6"] ;
0 -> 1 [labeldistance=2.5, labelangle=45, headlabel="True"] ;
2 [label=<non.current_investments &le; 0.0<br/>gini = 0.38<br/>samples = 64<br/>value = [24, 70]<br/>class = true>, fillcolor="#7dbfee"] ;
1 -> 2 ;
3 [label=<gini = 0.0<br/>samples = 18<br/>value = [0, 27]<br/>class = true>, fillcolor="#399de5"] ;
2 -> 3 ;
4 [label=<EPS_diluted &le; 0.284<br/>gini = 0.46<br/>samples = 46<br/>value = [24, 43]<br/>class = true>, fillcolor="#a8d4f4"] ;
2 -> 4 ;
5 [label=<gini = 0.269<br/>samples = 17<br/>value = [4, 21]<br/>class = true>, fillcolor="#5fb0ea"] ;
4 -> 5 ;
6 [label=<gini = 0.499<br/>samples = 29<br/>value = [20, 22]<br/>class = true>, fillcolor="#edf6fd"] ;
4 -> 6 ;
7 [label=<contingent_liabilities &le; 0.002<br/>gini = 0.499<br/>samples = 87<br/>value = [70, 78]<br/>class = true>, fillcolor="#ebf5fc"] ;
1 -> 7 ;
8 [label=<cash_and_equivalents_year_end &le; 0.381<br/>gini = 0.444<br/>samples = 32<br/>value = [36, 18]<br/>class = no>, fillcolor="#f2c09c"] ;
7 -> 8 ;
9 [label=<gini = 0.26<br/>samples = 9<br/>value = [2, 11]<br/>class = true>, fillcolor="#5dafea"] ;
8 -> 9 ;
10 [label=<gini = 0.283<br/>samples = 23<br/>value = [34, 7]<br/>class = no>, fillcolor="#ea9b62"] ;
8 -> 10 ;
11 [label=<other_expenses &le; 0.043<br/>gini = 0.462<br/>samples = 55<br/>value = [34, 60]<br/>class = true>, fillcolor="#a9d5f4"] ;
7 -> 11 ;
12 [label=<gini = 0.39<br/>samples = 45<br/>value = [21, 58]<br/>class = true>, fillcolor="#81c0ee"] ;
11 -> 12 ;
13 [label=<gini = 0.231<br/>samples = 10<br/>value = [13, 2]<br/>class = no>, fillcolor="#e99457"] ;
11 -> 13 ;
14 [label=<long_term_borrowings &le; 0.2<br/>gini = 0.374<br/>samples = 367<br/>value = [419, 139]<br/>class = no>, fillcolor="#eeab7b"] ;
0 -> 14 [labeldistance=2.5, labelangle=-45, headlabel="False"] ;
15 [label=<EPS_diluted &le; 0.33<br/>gini = 0.395<br/>samples = 335<br/>value = [371, 138]<br/>class = no>, fillcolor="#efb083"] ;
14 -> 15 ;
16 [label=<earnings_continuing_operations &le; 0.488<br/>gini = 0.245<br/>samples = 9<br/>value = [2, 12]<br/>class = true>, fillcolor="#5aade9"] ;
15 -> 16 ;
17 [label=<gini = 0.0<br/>samples = 1<br/>value = [2, 0]<br/>class = no>, fillcolor="#e58139"] ;
16 -> 17 ;
18 [label=<gini = 0.0<br/>samples = 8<br/>value = [0, 12]<br/>class = true>, fillcolor="#399de5"] ;
16 -> 18 ;
19 [label=<depr_amort &le; 0.017<br/>gini = 0.38<br/>samples = 326<br/>value = [369, 126]<br/>class = no>, fillcolor="#eeac7d"] ;
15 -> 19 ;
20 [label=<gini = 0.341<br/>samples = 268<br/>value = [319, 89]<br/>class = no>, fillcolor="#eca470"] ;
19 -> 20 ;
21 [label=<gini = 0.489<br/>samples = 58<br/>value = [50, 37]<br/>class = no>, fillcolor="#f8decc"] ;
19 -> 21 ;
22 [label=<cash_and_cash_equivalents &le; 0.007<br/>gini = 0.04<br/>samples = 32<br/>value = [48, 1]<br/>class = no>, fillcolor="#e6843d"] ;
14 -> 22 ;
23 [label=<less_mat &le; 0.491<br/>gini = 0.18<br/>samples = 7<br/>value = [9, 1]<br/>class = no>, fillcolor="#e88f4f"] ;
22 -> 23 ;
24 [label=<gini = 0.0<br/>samples = 6<br/>value = [9, 0]<br/>class = no>, fillcolor="#e58139"] ;
23 -> 24 ;
25 [label=<gini = 0.0<br/>samples = 1<br/>value = [0, 1]<br/>class = true>, fillcolor="#399de5"] ;
23 -> 25 ;
26 [label=<gini = 0.0<br/>samples = 25<br/>value = [39, 0]<br/>class = no>, fillcolor="#e58139"] ;
22 -> 26 ;
}
